0.9496295,-0.5884318,0.6312387,-0.2027543,-0.9465125,0.67778844,0.3597889,0.7481307,-0.045213763,-0.9410366,-0.9696486,0.14568017,0.18610795,-0.24962756,-1.2773023,-1.1897748,0.5005784,0.03572634,-0.18906483,-0.629395,0.8037278,0.22575663,-0.4750526,-0.03338891,1.5084685,0.00029143272,0.3601199,-0.4262554,-1.3331349,0.4918669,0.19893003,0.5024395,1.1798592,-0.0056778863,0.15285003,-0.33803868,0.062277675,0.8022068,-0.1624808,-1.2289133,1.2115057,0.2699522,-0.8706539,0.88670284,-1.0061022,-1.2057313,-0.9717906,0.7901869,-1.0240926,0.97748756,0.49428365,-0.13825332,0.96565706,-0.4115915,-0.548104,-1.0112758,0.17800994,0.31755129,0.3195756,0.51055545,0.28585288,1.0774894,-0.55469507,0.5541617,0.4591041,0.0495444,-0.38489404,-0.4719514,0.1932859,-0.49272296,0.0159725,0.42372105,-0.844924,-1.0594401,-0.17642921,0.4244889,0.10217518,-0.32438263,0.41944498,0.5351463,-0.012546714,0.7161737,0.87379855,-1.393393,0.37685627,0.45241615,0.35451066,-0.5893528,-0.49941322,0.0937127,0.03318202,0.21356927,0.155061,0.5691961,-0.4913846,-0.88794875,0.40879247,0.86706495,0.27066487,-0.65096074,-0.1638038,-0.39861757,0.05896645,-0.26425245,0.051030524,-0.22349006,-0.15021315,-1.051297,0.46977717,0.14241242,-0.7495551,-0.040136687,-0.6604919,0.33124438,-0.026519813,-0.16260901,0.37109146,-0.20730974,-0.23382385,-1.0359132,-0.17174655,-1.0572299,-0.2229594,0.06742334,-0.389734,0.044753723,0.64968044,-0.49403378,