-0.17080864,-0.11352803,-0.12920111,-0.058155823,0.15007208,-0.042246856,0.313455,-0.03893123,0.034993462,-0.069346555,0.035439514,0.033224784,0.12177087,-0.06208155,-0.04776917,0.030056164,0.120797716,0.19480872,0.057391893,0.28566524,-0.5081967,0.20293505,0.027821332,0.11941245,0.039460666,-0.00077842176,0.054528773,-0.116420984,-0.03570224,-0.11096501,-0.23812854,-0.020068416,0.11123014,0.04710722,0.3793156,0.29592773,0.010405727,0.11997026,-0.14546943,-0.036918186,-0.120006226,0.25354508,-0.018219007,-0.055411767,0.23979972,-0.023762679,0.07992119,-0.2525518,0.070299394,-0.07587243,0.59644765,-0.016459296,-0.011124846,-0.047387104,-0.039338432,-0.043635074,-0.041407354,0.0013590046,-0.036577795,0.06229228,-0.13006628,0.045593582,0.10474975,-0.1191218,-0.21957082,0.037745174,-0.06619811,-0.069837116,-0.010110256,0.05979441,0.05093321,0.09224002,-0.106131166,0.007332744,-0.031513195,0.38549238,-0.07477282,0.1263426,-0.15477973,0.01809907,-0.049380157,-0.1647804,-0.33242133,-0.046973605,0.1329447,0.15128568,0.086730525,0.0060241823,-0.0154239535,0.21104226,-0.09055495,-0.017701402,-0.21322122,0.06679085,0.025670879,-0.02318465,-0.03881044,-0.11473845,0.038135268,0.35593995,0.53068715,0.014390954,0.29496315,-0.32481012,0.09528287,-0.13549249,0.21928994,0.0023117603,0.069163926,0.070046954,-0.0293241,-0.077534534,-0.2999512,-0.062232673,0.22102584,-0.049816247,0.017061412,-5.004555e-05,-0.05797009,-0.28855097,-0.010459815,-0.07592255,0.2865822,0.29024538,-0.0159729,-0.3558577,-0.0058457167,-0.011399791,
-0.21869501,-0.13521676,-0.2071235,-0.022546483,0.087388575,0.02443369,0.055760007,0.03432084,-0.037665613,0.040152278,0.041688107,-0.001223719,0.0022468218,0.056936912,0.011120157,0.01626487,0.17434253,0.27571014,0.2949019,0.15019752,-0.5568032,-0.20730855,0.041723654,0.13614777,-0.06739134,0.0047805444,0.052800458,-0.10044886,0.03189162,-0.11209259,-0.50116485,-0.04555439,0.108891994,-0.029868064,0.12692069,0.27021876,0.021342479,0.13696246,0.06901211,-0.0037685093,-0.1800299,0.2022462,-0.05638037,-0.1817204,0.21879476,-0.05607719,-0.014698508,-0.18819712,-0.06557196,0.035851642,0.089841254,0.030176677,0.054268826,-0.100818306,0.042525634,0.008181243,-0.15031576,-0.29124066,0.059474,0.009401018,-0.26485443,-0.0048262263,0.033281352,-0.15187854,-0.25382614,0.078571685,-0.0371097,-0.019794282,-0.095548145,0.05692645,0.045908146,0.10297531,-0.20518318,0.011974609,-0.016877798,0.1604398,-0.036205024,0.07228859,-0.07455203,-0.049434524,-0.06517695,-0.09740655,-0.38009515,-0.07723585,0.19021687,0.11040986,0.060639646,-0.35628527,-0.071325034,0.53073406,-0.28815088,-0.039303713,-0.16741392,0.071953475,0.04956301,0.2832297,-0.06448443,-0.2903659,0.0047083404,-0.24513553,0.6377999,0.032083716,0.15845318,-0.28792,0.037057985,-0.21842705,0.28598586,0.056885183,-0.044953685,0.04239149,0.0005721897,0.05474732,-0.5172766,-0.10932882,0.20153154,-0.12290428,0.041399848,0.03384773,-0.15380292,-0.20060161,0.45767552,0.0006120117,0.48460153,0.2600742,0.012967088,-0.29854575,-0.37440214,0.04087606,
-0.11360483,-0.14864558,-0.22046314,-0.054481655,0.10445821,0.06558474,0.037988372,0.040221013,0.026374154,0.018461926,-0.2330731,-0.0024306835,0.01859047,-0.0974027,0.03241734,-0.06824518,-0.10278998,0.26315045,0.45971406,0.1954875,-0.5038522,-0.31343412,0.045196697,0.2285964,-0.060508158,-0.08399547,-0.049483642,0.016249876,-0.04652123,-0.09162904,-0.20392658,-0.012298683,0.08019806,-0.18723941,0.2961725,0.32030767,0.2054364,0.42217892,0.2586943,0.041655358,-0.26910114,0.52282137,-0.05397975,-0.2837403,0.13411194,0.045538902,-0.057962965,-0.22288747,-0.002457001,0.024551995,0.11401463,-0.06454602,0.15002398,-0.1604943,0.031682134,0.036689132,-0.08504479,-0.30975643,0.011808027,0.049184214,-0.247181,0.066290766,-0.06737007,-0.098832965,-0.28366604,-0.00794424,0.055693734,-0.0762819,-0.16283527,0.1016499,0.12957083,0.05961311,-0.12531193,-0.015430263,0.007744987,0.63549757,-0.1642513,0.08925602,-0.13237457,-0.23921591,-0.03511055,-0.22016981,-0.4733214,-0.055914827,0.3632139,0.08066503,-0.117584646,-0.19760346,-0.19925895,0.57186955,-0.3369247,-0.12009455,0.11091282,0.07258816,0.06209457,0.32242736,0.02573955,0.4673162,0.022745704,-0.5178945,0.53986233,0.057366002,0.04010257,-0.28817365,0.037722684,-0.14812683,0.51813525,-0.03279835,-0.08175922,0.0070414776,-0.28301957,-0.017086975,-0.38164577,-0.07890487,0.23823433,-0.075991236,0.0063996967,-0.020731447,-0.06260454,-0.2181468,0.70247483,-0.1888931,0.5586767,-0.01905389,-0.0135673415,-0.27494162,-0.06384613,-0.035893507,
0.024581688,-0.32865378,-0.5091109,0.12298829,0.00090297917,-0.024097703,0.29413843,-0.055668075,-0.0014805355,-0.0637936,-0.29213494,-0.20804891,0.06570263,-0.13750224,-0.2168504,-0.2111209,-0.30149612,0.12639518,0.52243996,0.21115156,-0.7799059,-0.1632259,0.07409525,0.13010019,-0.072346516,0.07988516,-0.37081173,0.119494885,0.112558484,-0.4287108,-0.3643111,-0.09513863,0.07142934,-0.27792725,0.30397207,0.39485037,-0.17929006,-0.0035193719,0.40270427,-0.18018906,-0.5479913,0.4610078,-0.1488006,-0.12182173,0.28732857,0.13018264,-0.2771662,-0.102397166,-0.26845044,-0.022596102,0.3091246,-0.044259988,-0.06057116,-0.056296125,-0.05653678,-0.32391897,0.03959257,-0.35340148,0.035151873,-0.11919764,-0.5879713,0.06108319,-0.15216124,-0.11164831,-0.3455102,-0.19526476,-0.047988646,-0.07148702,-0.20883185,0.10134088,0.30709276,0.14696948,-0.24005088,-0.13254458,-0.05530235,0.8909593,-0.33832175,-0.0630065,-0.1285485,-0.26114145,-0.17440471,-0.37254286,-0.68480325,-0.18554592,-0.047469977,0.055524025,-0.101358086,-0.2830459,-0.07590537,-0.042932417,-0.23577152,-0.32221705,-0.24688007,0.025404966,-0.15483288,0.33931988,-0.14955468,0.75601363,-0.15239497,-0.61122924,-0.08825281,-0.56179065,-0.32697478,-0.3257233,-0.20528825,0.5017516,0.1930753,-0.32145807,-0.017813418,0.23953438,-0.52929276,0.04636868,-0.32551327,-0.08449777,0.07628925,-0.00443397,-0.14825702,-0.07392912,-0.3708459,-0.51614904,0.3814117,-0.18427446,0.18537392,-0.17510526,0.038687248,0.10205123,0.3150647,-0.07082555,
-0.009746813,-0.24181665,-0.32511434,0.18721314,0.20425713,-0.022827148,0.26935425,-0.10266085,0.02382477,0.020476041,0.10010348,-0.13684092,0.29164377,-0.11423981,-0.21470705,-0.25361764,-0.30253077,0.20729376,0.37577063,0.100852266,-0.6239098,0.0688279,0.1659183,-0.106167205,-0.31006217,-0.032872375,-0.37482733,0.031992037,0.1028452,-0.3643571,-0.4666304,-0.14668907,0.086306944,-0.1392856,0.5140446,0.36439088,-0.37136194,-0.4219508,0.36129993,-0.25072423,-0.5136887,0.19101384,-0.11981703,-0.118668325,0.35722408,0.0676818,-0.2592098,-0.12618464,-0.29698855,-0.08904474,0.43395266,0.002130516,-0.32235947,0.13835399,-0.0580071,-0.4652913,0.63270706,0.032664504,-0.1685167,-0.060937062,-0.5728088,-0.03785032,-0.28600323,-0.10533886,-0.43273786,-0.191514,-0.018520562,-0.14618844,-0.2353696,0.010931882,0.25471103,-0.15369801,-0.17072715,-0.11487274,-0.0075567137,0.8687334,-0.06314212,-0.08446455,-0.12500603,-0.35133296,-0.17012392,-0.2093755,-0.46598563,-0.26327565,-0.2681598,-0.14950703,-0.10970038,-0.42838582,-0.08482561,-0.27465862,-0.2336413,-0.76510453,-0.59786403,0.056892943,-0.21880853,0.40384084,-0.12707052,0.12460927,-0.048996042,-0.8366109,-0.20892645,-0.7901021,-0.45304435,-0.2977621,-0.2392523,0.3652118,0.43845013,-0.15761454,-0.13270208,0.24829279,-0.4567246,0.048886083,-0.12851614,-0.09579445,0.04806473,-0.024375308,-0.0721984,-0.2714757,-0.45753205,-0.8214263,0.29658866,0.018329198,0.04171617,-0.28501603,-0.19079673,0.21593317,0.27767596,-0.15636896,
-0.2494098,-0.12323145,-0.42377135,0.13232598,0.11045708,-0.07600092,0.42326495,-0.10375903,0.063635565,0.01834094,0.06096834,-0.14772898,0.5009444,-0.07540148,-0.061070956,-0.044143517,-0.43333504,0.20252033,0.49371418,0.07155619,-0.9650292,-0.26753545,0.07502173,-0.00047236212,-0.56691486,0.10228264,-0.1916029,0.3680815,-0.14780037,-0.44412673,-0.8170134,-0.2122714,-0.0064110435,-0.2515312,0.51789725,0.43039933,-0.5595658,-0.20371485,0.46992245,-0.11821715,-0.27232316,0.43405765,-0.24855788,-0.12640694,0.28661597,0.11290682,-0.4357536,-0.76101685,-0.17907721,0.08897868,0.22964023,-0.18576285,-0.33325192,0.41518664,-0.21313521,-0.40389657,0.6026053,0.24034594,-0.08496783,-0.12236076,-0.5559078,-0.05931333,-0.17313984,-0.08384855,-0.7736827,-0.3231263,-0.043332923,-0.2761443,-0.30472538,0.018922186,0.25525975,-0.2387239,-0.109508336,-0.25620356,0.11058642,0.89639944,-0.11909501,-0.09791132,-0.30904302,-0.33678168,-0.2881134,-0.3285832,-0.92041236,-0.1587062,-0.34531647,-0.21210498,-0.38161132,-0.4257331,-0.3152695,-0.14734888,-0.24896517,-0.9517654,-0.8177288,-0.012044726,-0.40865454,0.38696668,-0.12822326,-0.27482438,-0.09163104,-0.394429,-0.2716912,-0.6078113,-0.4669261,-0.3161792,-0.17010924,0.2136674,0.47922075,-0.03496459,-0.16477954,-0.02942015,0.060390152,0.075421266,-0.31766847,-0.12111799,0.0007623828,-0.099109806,-0.15562272,-0.21152107,-0.33140093,-0.8792094,0.63076544,-0.057346903,0.1625814,-0.37388593,-0.14460178,0.32276648,-0.09798713,-0.09604833,
-0.07459797,0.04078201,-0.54157543,0.08601026,0.14139037,-0.13177308,0.04686597,-0.097860225,-0.06940941,-0.046351742,-0.010822891,0.078345425,0.47452116,-0.3078144,-0.1353499,-0.15673009,-0.30530047,0.22801328,0.452105,0.113563046,-1.260458,-0.33219495,0.0054870667,0.09750045,-0.52629817,-0.117961325,0.037462678,-0.15708555,-0.27708483,-0.15530372,-0.7994354,-0.088293254,0.023020219,-0.33396938,0.030535396,0.1805726,-0.39004856,-0.07773268,0.43034723,-0.028420983,-0.3473627,0.21232043,-0.26188502,-0.09796919,0.2250767,0.20343524,-0.45572948,-0.71919435,-0.098415814,-0.00082045747,-0.05948821,-0.13831943,-0.19661956,0.447805,-0.025629347,-0.450885,0.39902285,0.21979222,-0.09197016,-0.084531166,-0.534726,0.023196142,-0.08026272,0.019346302,-0.89826494,-0.42893448,-0.16422749,-0.18106757,-0.3966492,-0.050217588,0.5204226,-0.23050684,0.24692413,-0.40175566,0.03166326,0.6211502,0.26584655,-0.054296225,-0.23169559,-0.68654096,-0.15616888,-0.32052958,-1.3704478,-0.14229305,-0.24225563,0.09367317,-0.476701,-0.060192954,-0.19400828,0.006815895,-0.23005508,-0.953738,-0.8662124,0.12671222,-0.36838663,0.22726443,-0.04676977,-0.39423245,-0.118253335,0.20557883,-0.35948327,-0.8746541,-0.3173496,-0.48485458,-0.23412256,0.44469294,0.43472567,-0.20778254,-0.009492363,-0.29302686,0.19278288,-0.03620874,-0.63121307,-0.109311566,0.13771665,-0.1628232,-0.1861658,-0.24363123,-0.2738122,-0.70377046,0.65408504,-0.03696732,0.011812074,-0.5010179,-0.18477188,0.28635305,-0.28123185,-0.20434582,
-0.043902945,0.05102012,-0.68850094,0.01758463,-0.0066973614,-0.11292641,0.2497652,-0.08089722,-0.083641835,-0.16642088,-0.07199293,0.0027908753,0.20762469,-0.1501202,-0.033120688,-0.04620387,-0.43888545,0.1343127,0.30041295,0.23232709,-1.4561667,0.035824846,-0.048298802,0.30557397,-0.20611684,-0.16452137,0.13704781,-0.24190862,-0.40099835,-0.34670857,-0.86311847,-0.23195674,-0.08467469,-0.44125143,-0.28868285,0.047113594,-0.2925389,-0.33121452,0.09717837,-0.22724618,-0.533587,0.12922898,-0.43818662,-0.1526486,0.09910897,0.23245737,-0.46913844,-0.5317019,-0.16954352,0.09378646,0.08783721,-0.16092163,-0.35139543,0.08503296,-0.15107231,-0.40481555,0.304855,0.20127973,-0.2476909,-0.2870733,-0.5471593,0.032864656,-0.21293865,-0.081078045,-0.88509434,-0.54621303,-0.2260654,-0.34612018,-0.4440154,-0.112703085,0.39886808,-0.15435901,-0.0031186282,-0.5131465,0.12260314,0.6211503,0.46022743,0.3620035,-0.18262187,-0.89985514,-0.21776146,-0.3486501,-1.3578511,-0.14632337,-0.20054089,0.16202952,-0.43690827,0.43262503,-0.31611207,0.34465456,-0.2160117,-0.9818624,-0.8780691,-0.12185828,-0.28292224,0.34262973,-0.019915542,-0.58208174,-0.10337558,0.34230995,-0.12458213,-0.6448825,-0.29589155,-0.3860394,-0.31405082,0.42004955,0.3455609,-0.28767884,-0.04394761,-0.17384648,0.19262917,-0.066902086,-0.6921044,-0.099751584,0.037745025,-0.07667553,-0.21932688,-0.1261172,-0.43965065,-0.39212033,0.5154657,0.08904842,0.13970484,-0.63712263,-0.33894125,0.38900307,-0.22237708,-0.23339638,
0.25990757,-0.12636513,-0.68258166,-0.09252592,0.0024297428,-0.19121678,0.08734559,-0.08269016,0.01797532,-0.1424459,-0.09544986,-0.093405105,0.38732702,-0.1491263,-0.06687951,-0.058528893,-0.6572768,0.05689305,0.1729183,0.14786324,-1.1271025,0.1359541,-0.013016987,0.21660337,-0.10879956,0.011316468,-0.2308256,-0.26768157,-0.31012765,-0.47113004,-0.7661187,-0.1352011,-0.2677627,-0.3637308,0.43400776,-0.17503808,-0.31522983,-0.40775692,0.27062318,0.0031029317,-0.52379316,0.14547992,-0.2946584,0.013668384,-0.029441139,-0.13440834,-0.53123343,0.015682738,-0.20351662,-0.15409407,0.073989436,-0.24511318,-0.37448025,0.030212872,-0.16060297,-0.4195398,0.2897114,0.2548717,-0.76662594,-0.3662425,-0.66986644,-0.0649349,-0.22833487,-0.15323122,-0.85266995,-0.5954911,-0.16993886,-0.5216687,-0.67901945,-0.36865667,0.21893726,-0.34090823,-0.07253531,-0.29496825,0.20333493,0.86325216,0.3232015,0.45527512,-0.22986318,-0.554822,-0.4312782,-0.22145411,-1.3958441,-0.14540106,-0.36577904,-0.06451934,-0.695515,0.5227038,-0.11937822,0.3355454,-0.43170175,-1.0183444,-0.7310043,-0.15733786,-0.3318619,0.36612967,-0.20314561,-0.7017483,-0.03727032,-0.06832506,-0.4626116,-0.35312694,-0.38190627,-0.3195421,-0.36701363,0.3145827,0.17009921,-0.65415573,-0.09310112,-0.24694929,-0.01225752,0.05537182,-0.444167,-0.31534827,-0.20272474,-0.03372442,-0.12606525,-0.20228909,-0.46022883,-0.025066035,0.24381581,0.07690497,0.3857113,-0.9377645,-0.20149031,0.52236205,-0.20917414,-0.27660888,
0.8768995,-0.45590457,-0.57268184,-0.17550199,0.17015041,-0.3158473,-0.14916734,-0.018492747,-0.025598438,-0.29328582,-0.25745046,0.029780906,0.45786512,-0.3460894,0.13237041,-0.04651193,-0.643984,0.0888277,-0.039222166,0.20631641,-0.98988193,0.26193428,-0.15844546,-0.10056672,-0.21556348,-0.024830518,-0.074220374,-0.2046619,-0.07796997,-0.57416975,-0.70434684,0.12935863,-0.36833346,-0.38050038,0.97424966,-0.24809445,-0.102823414,-0.6491708,0.17739744,-0.060079906,-0.5112794,-0.055226028,-0.47981414,-0.040188465,-0.084330335,-0.45944878,-0.38833553,0.9119905,-0.042051375,-0.22386803,0.18273368,-0.19444305,-0.28434786,-0.33346814,-0.11744609,-0.67954355,0.27347842,0.57599044,-0.20002854,-0.35835454,-0.54571146,-0.08663896,0.035297893,-0.319095,-0.96028346,-0.1696134,-0.02337116,-0.721793,-0.5312021,-0.43585676,0.24562408,-0.49120972,-0.022225654,-0.48493809,0.57446784,0.9833276,0.5399534,0.6213176,-0.20982319,-0.50082564,-0.41147828,-0.10456197,-1.5118831,-0.19440185,-0.84402084,-0.1371476,-0.45644546,0.2843086,0.0003136567,-0.08225113,-0.78775585,-1.046456,-0.451761,-0.2686606,-0.13725263,0.300494,-0.1347301,-0.53674376,-0.045410924,-0.45303714,-0.81334436,-0.10922024,-0.4429664,-0.53530085,-0.16785079,0.17268711,-0.40088856,-0.65938306,-0.06022754,-0.18794538,-0.16391033,-0.067557104,-0.4047587,-0.26634112,-0.33322507,0.32188904,-0.30865934,-0.10879345,-0.31877828,-0.14574191,0.22580671,-0.05828403,0.15830825,-0.81744283,-0.03323693,0.5203357,-0.1576665,-0.09966403,
0.32497987,-0.646089,-0.511992,-0.21860233,0.052028503,-0.229297,0.13679484,-0.026859786,-0.024818378,-0.24962267,-0.26070794,0.11654375,0.43104705,-0.4078598,-0.049849797,0.105775736,-0.107766755,-0.23870003,0.15276147,0.44045937,-0.9846485,-0.023453657,-0.2124401,-0.047362495,-0.041369215,0.035630077,0.057268504,-0.39582527,-0.26889956,-0.526835,-0.5098173,0.16250327,-0.3689272,-0.37477618,0.7690938,-0.44121504,-0.33587727,-0.41773912,0.30333984,-0.16955556,-0.5900477,-0.090855956,-0.56903446,-0.123700894,-0.21887349,-0.27036703,-0.35346314,0.5789373,-0.20843002,-0.27112556,0.07612107,-0.2465788,-0.61022455,-0.30949658,-0.24344106,-0.33214477,0.05208417,0.4336671,0.02499317,-0.4557395,-0.5061764,0.03358633,-0.28997114,-0.36749318,-0.8247116,-0.39380443,-0.1554283,-0.684219,-0.5447014,-0.4962047,0.17672892,-0.36264065,-0.07892818,-0.5469391,0.6495718,0.51501065,-0.051671766,0.74667776,-0.2241983,-0.5987489,-0.3824187,-0.19234112,-1.4183631,-0.1180807,-0.56404155,-0.46689382,-0.3755663,0.13625078,0.099266216,-0.3078095,-0.69458973,-0.89250886,-0.5919679,-0.24036144,-0.3131295,0.1675684,-0.07968356,-0.47282663,-0.09524901,-0.5261383,-0.7560052,-0.110612854,-0.40488073,-0.5244538,-0.10292642,0.26139405,-0.33910045,-0.6485079,-0.16147053,-0.10032741,-0.31189388,-0.052612744,-0.3766795,-0.34080032,-0.16673867,0.4740338,-0.32664183,-0.10935469,-0.24219856,-0.16896644,0.07711605,-0.23583901,-0.04653036,-0.7535554,0.2378677,0.31701767,-0.18621401,-0.068933055,
0.17321798,-0.6150715,-0.33330995,-0.18187207,-0.06870781,-0.24680634,0.14310007,-0.098250836,0.04307359,-0.19505861,-0.2875743,0.38242882,0.08126008,-0.21432841,-0.21886988,-0.07578979,-0.20020425,-0.21660824,-0.027638854,0.2938068,-1.06515,-0.29041055,-0.34187117,0.0038647107,0.33931524,-0.034197267,-0.07387742,-0.31218186,-0.4447341,-0.66015047,-0.5405249,0.10704522,-0.19646852,-0.35731757,0.60405004,-0.40558645,-0.50817496,-0.50919914,0.3290186,-0.27804035,-0.33118024,-0.24802408,-0.6299179,-0.02231479,-0.27558765,-0.24801709,-0.61683923,0.23408718,-0.24979624,-0.18117857,-0.022603987,-0.3091709,-0.7761897,-0.22854015,-0.14012697,-0.16584411,-0.17431627,0.06458374,-0.16398619,-0.6839255,-0.5820418,-0.07440951,-0.464121,-0.31191346,-1.0134157,-0.35566804,-0.2064063,-0.6510874,-0.32259163,-0.6912319,0.24141768,-0.56364757,0.21789776,-0.5876514,0.7486558,0.6560327,0.14086008,0.6931423,-0.18813674,-0.46409196,-0.27755934,-0.10434669,-1.3591183,-0.45636874,-0.35130963,-0.34587854,-0.3425564,-0.080356866,0.34345326,-0.47794595,-0.6120393,-0.89008564,-1.0463417,-0.28301978,-0.26726183,0.30432963,-0.15301003,-0.568228,-0.133941,-0.42670053,-0.29081187,0.11038372,-0.46582827,-0.3081558,-0.2898391,0.46128848,-0.29647854,-0.86237794,-0.087094955,0.10804715,-0.46533147,0.0027600697,-0.21434696,-0.18674628,-0.06419381,0.42346504,-0.22198536,-0.11539714,-0.05589786,-0.18568294,0.09165182,-0.18816213,-0.43182516,-0.89284205,0.13492128,0.23285536,-0.16886634,-0.065238304,
0.26853108,-0.50275534,-0.25935087,-0.09150442,-0.4155764,-0.26311436,-0.016169738,-0.11018566,-0.10596421,-0.077839375,-0.14104919,0.25311753,0.28753147,-0.053333413,-0.14170745,-0.17624554,-0.273333,-0.1626426,0.07463128,0.1608168,-0.9953771,-0.015238849,-0.5957871,0.14041273,0.4898469,-0.18775684,-0.14032836,-0.3256889,-0.36293873,-1.0755515,-0.19215204,0.0871404,-0.24254122,-0.22459935,0.49499488,-0.46955052,-0.53422695,-0.60888785,0.41217738,-0.3259365,0.043623306,0.25901148,-0.63138694,0.114845216,-0.25353557,-0.24553944,-0.69922554,0.22842461,-0.3116886,-0.33184844,0.056050327,0.11379103,-0.79194134,-0.30007663,-0.17900918,-0.19411413,0.13283387,0.10598555,-0.3857989,-0.4823632,-0.5373389,-0.051764257,-0.43765062,-0.5062077,-1.4830358,-0.6353178,-0.16615699,-0.7064756,-0.46404198,-0.76642495,0.47091243,-0.42640546,0.07614901,-0.989337,0.8395951,0.72639525,0.27430487,0.43864167,-0.44893494,-0.28800005,-0.040877145,-0.17031218,-1.4977396,-0.4132748,-0.24410798,-0.038590416,-0.30178028,0.06564874,0.53732884,-0.5847426,-0.31277755,-0.8966194,-0.9020369,-0.39385557,-0.4918376,0.20589797,-0.1055861,-0.82087255,-0.2557382,-0.25495887,-0.084607385,0.04652144,-0.37873957,-0.27682978,-0.3821113,0.41757238,-0.096764535,-0.9697976,0.13892102,0.39798868,-0.619611,0.047584236,-0.2284847,-0.37651762,-0.41118082,0.10642057,-0.21686478,-0.20905721,-0.09175937,0.0066924323,0.1991758,-0.13554455,-0.19543397,-0.6914277,0.27541864,-0.13163392,-0.30461657,-0.27789578,
0.23302153,-0.48662132,-0.32248068,-0.07187168,-0.15199062,-0.2605684,0.06480564,-0.17552517,-0.10281064,-0.18267561,-0.0073748496,0.23180628,0.20780918,-0.32413673,-0.114604674,-0.3821045,-0.43685728,0.12181451,0.41384596,0.032260727,-1.073259,-0.025675861,-0.22531213,0.050557848,-0.025871865,-0.025209028,0.010368602,-0.23151022,-0.12058286,-1.145304,-0.40638655,-0.03114147,0.009159431,-0.42142877,0.47940475,-0.5379176,-0.48820207,-0.42733485,0.34980944,-0.57518506,0.06357553,0.41909018,-0.83176714,0.07346801,-0.22955015,-0.108676754,-0.8465592,0.14368407,-0.24798997,-0.31469187,-0.022197478,0.38209808,-0.5622145,-0.45743898,-0.14384724,-0.3567679,0.18774913,-0.25365648,-0.5322686,-0.13208503,-0.66830105,-0.28681108,0.043839652,-0.39245558,-1.4061527,-0.54622656,-0.2964149,-0.566767,-0.6503295,-0.31713104,0.36240056,-0.29897082,0.12073059,-1.024266,0.5380967,0.64111835,0.4405888,0.3389375,-0.97100633,-0.32558548,-0.14896697,-0.23081614,-1.6026757,-0.6289068,-0.0156528,-0.11196505,-0.48919162,0.06587883,0.6987486,-0.46206024,-0.014467446,-0.91200286,-0.7851393,-0.41222245,-0.33121184,0.15342972,-0.11963972,-0.9651553,-0.1729937,-0.14581704,-0.15586872,-0.059473384,-0.07936817,0.16944522,-0.295805,0.10511935,-0.27485666,-0.80052984,0.10823365,0.44850016,-0.5752631,-0.07337768,-0.29287487,-0.5602353,-0.4677169,0.54933894,-0.26763234,-0.18244635,-0.15226649,0.091318145,0.43580508,-0.07273902,0.15002438,-0.8838428,0.34039557,-0.72379595,-0.6731538,-0.16114143,
-0.097051784,-0.53191304,-0.124079034,-0.1266614,-0.14749867,-0.20825426,0.08370102,-0.069376424,0.047390796,-0.26817074,0.12049395,-0.048940767,0.04272324,-0.5055946,-0.22405387,-0.54354805,-0.6295313,0.2501834,0.46048826,-0.06548146,-0.87682366,-0.10145385,0.012549619,0.22118734,-0.38221225,-0.045682862,0.3175155,-0.32885057,0.06251426,-1.1064587,-0.7177045,-0.26021206,0.00302248,-0.5094479,0.386148,-0.5343101,-0.42317504,-0.37042868,0.21072547,-0.66407907,-0.067904346,0.17382514,-0.6809877,-0.026462996,-0.349066,0.07841928,-0.94385177,-0.18235007,-0.32034853,0.17097823,0.035730783,-0.039748076,-0.7831309,-0.38813454,-0.2768668,-0.5832689,-0.14752552,-0.31420666,-0.28582028,-0.3837822,-0.5143566,-0.036507927,-0.18377748,-0.46682155,-1.1022635,-0.6541346,-0.29034963,-0.49644604,-0.6994438,-0.5648533,0.29350546,-0.1033633,-0.2640624,-0.87639797,-0.13742603,0.37135032,0.028123671,-0.17704435,-1.0345162,-0.13352384,-0.24021295,-0.30263856,-1.5885123,-0.35444567,-0.07810093,-0.6055489,-0.6122154,-0.10558513,0.6958018,-0.7476913,0.069941804,-0.91916674,-0.88530433,-0.3234656,-0.2866481,-0.021109777,-0.19209616,-0.4817005,-0.19927026,-0.012977364,-0.36871216,-0.25283912,-0.2111308,0.17194763,-0.27878723,-0.027314855,-0.5796245,-0.37685755,0.13350432,0.018219244,-0.48841676,-0.002065637,0.019805124,-0.4570354,-0.39881018,0.37366256,-0.25298935,-0.08657519,-0.1689672,0.13955441,0.28326792,-0.0010867976,-0.10723135,-0.71095467,0.2744018,-1.129649,-0.3613306,-0.32211754,
-0.07184267,-0.55310833,-0.12171992,-0.04633814,0.031606235,-0.27821353,0.1545796,-0.09023655,0.047363874,-0.21237847,0.052695584,-0.16234747,0.0919308,-0.2246662,-0.19276278,-0.61530024,-0.58618087,0.22105177,0.45506045,-0.049175717,-0.5610478,-0.119726054,0.08004604,0.0747593,-0.8297497,-0.08943844,0.3573019,-0.62001896,0.20093665,-0.6957109,-0.81185305,-0.42381,0.115936585,-0.35946003,0.20970713,-0.4647224,-0.47712898,-0.39243838,0.3524693,-0.58631325,0.17187005,-0.044341844,-0.35500813,0.19644688,-0.30707666,0.17935413,-0.73708236,-0.062157627,-0.38912508,0.42402098,0.06556369,-0.20144317,-0.9490258,-0.38885555,-0.31966436,-0.3233921,-0.3080829,-0.048038363,-0.10570537,-0.6662301,-0.52868664,0.37991706,-0.49800912,-0.5031889,-0.9258826,-0.68761915,-0.15855022,-0.48245633,-0.6481971,-0.7650487,0.29666722,-0.3135179,-0.25313863,-0.72517467,0.11016738,0.08538059,0.006094712,-0.22006892,-1.1826465,-0.10071637,-0.1505081,-0.30542994,-1.356857,-0.33979568,-0.2502862,-0.3103902,-0.7338709,-0.047150716,0.91319996,-0.95382077,-0.019547703,-0.87165165,-0.8864479,-0.11786306,-0.38269997,-0.17163317,-0.21312398,-0.70165664,-0.31268612,-0.19210656,-0.16753507,-0.44004446,-0.5239013,0.4575248,-0.44778645,0.08782522,-0.49274012,-0.047343325,0.14760303,0.24878944,-0.45594373,-0.062405158,0.17042683,-0.3413512,-0.28738722,0.23788694,-0.11569365,-0.39907652,-0.3271038,0.07452249,0.06955444,-0.20852269,-0.3597373,-0.489685,-0.27130055,-1.2536222,-0.56400657,-0.37864998,
0.09435311,-0.4292591,-0.23209001,0.03940346,-0.16185512,-0.31499037,0.05626445,-0.15945522,0.039136656,-0.49724832,-0.14405556,-0.105554,-0.11218748,-0.0469975,-0.42398492,-0.64643055,-0.37821028,0.15458906,0.4821226,-0.18570367,-0.7006362,-0.0768645,0.20790876,-0.061896823,-1.0462818,-0.043535072,-0.023047587,-0.6990483,-0.19482772,-0.2770469,-0.75155854,-0.23752043,-0.0022823685,-0.4003192,0.10073459,-0.42817733,-0.5540563,-0.31017128,0.3785399,-0.4951886,0.13753384,-0.13902648,-0.37874487,0.022417298,-0.42286786,0.09877677,-0.70692056,0.29099193,-0.3429637,0.1497843,0.09689422,-0.080159985,-0.9788139,-0.1509649,-0.23256731,-0.27381527,-0.2602561,0.26156867,-0.19326675,-0.68832886,-0.49267,0.114521205,-0.5451652,-0.59504116,-0.91456103,-0.72349584,-0.28854078,-0.43372336,-0.6825484,-0.63609433,0.08428758,-0.30983514,-0.2070893,-0.6335356,0.16911618,0.03889708,0.22585379,-0.16378441,-1.0392271,-0.15170346,-0.19869423,-0.1475874,-1.2745761,-0.5851256,-0.24885924,-0.31878567,-0.41113478,0.2560511,0.91592604,-0.8272641,0.12771009,-0.8279384,-0.63249993,-0.036245633,-0.312469,-0.3285179,-0.16563527,-0.81885135,-0.2943084,-0.221671,0.2302566,-0.3459186,-0.61571866,0.72341657,-0.47284952,0.086805046,-0.113862544,0.16011594,0.20778029,0.43341807,-0.44927728,0.05692838,0.11678959,-0.39724243,-0.18754365,0.40292817,-0.218751,-0.34825015,-0.27024928,0.2236029,0.12563017,-0.24926093,-0.44889188,-0.48209807,-0.49395612,-0.85804945,-0.6995977,-0.30956647,
0.24783427,-0.36227575,0.14672685,-0.07614533,-0.465345,-0.034981064,0.11002963,-0.14566767,-0.060283203,-0.5336088,-0.17136289,-0.04897367,0.08086501,-0.27797437,-0.3441404,-0.22004202,-0.45916286,0.33012944,0.3423776,-0.22324711,-0.9880643,-0.17808191,0.22593221,-0.177956,-0.6307928,-0.0069921445,-0.15286468,-0.47055295,-0.42509493,-0.064734906,-0.7388273,-0.025249342,0.13575737,-0.47090682,0.06870742,-0.14237908,-0.6988992,-0.56637853,0.051072367,-0.28218597,0.009400149,-0.34854493,-0.27915722,-0.108978964,-0.5205744,-0.07755922,-0.8561277,0.21445574,-0.31186748,-0.13251816,0.07411309,0.3643178,-0.7622154,-0.11964529,-0.15298218,-0.3749435,-0.21917172,8.3836785e-05,-0.27800754,-0.70502484,-0.30778563,0.0086534545,-0.64621246,-0.499865,-1.1069456,-1.1543338,-0.35126197,-0.5270729,-0.4728731,-0.7316045,-0.024538944,-0.5157904,-0.028329689,-0.38930193,0.5481398,0.20775014,0.23363975,0.11831403,-0.9654599,-0.3577077,-0.21253522,-0.01172549,-1.4529856,-0.56300896,-0.17626871,-0.2285951,-0.11505426,0.17469588,0.7178123,-0.25187647,0.17654167,-0.78190625,-0.3424139,-0.05365474,-0.28019702,-0.5485006,-0.15473676,-0.75539297,-0.31184366,-0.337997,0.21470967,-0.17661686,-0.60316277,0.3014544,-0.69071245,0.07076596,-0.064146936,0.4361555,0.24891219,0.3532676,-0.17546977,0.09373161,0.30885485,-0.047196943,0.11418632,0.8131446,-0.11820057,-0.26803303,-0.22248799,0.1361436,0.1533322,-0.3166244,-0.42835048,-0.5221401,-0.5570978,-0.4412636,-0.4160672,-0.37225515,
0.28187767,-0.393575,-0.22135504,-0.053225763,-0.5368043,-0.15200865,0.012648146,-0.16372801,6.1144296e-05,-0.21118298,-0.00990945,-0.17920081,0.04655246,0.051255316,-0.29465476,-0.16127533,-0.44294044,-0.2845811,0.22467376,-0.22107764,-1.2731887,0.10152537,0.37780696,0.12102861,-0.41069403,-0.2801704,-0.012089463,-0.274602,-0.1278663,-0.3394646,-0.9366673,-0.24971169,-0.07447639,-0.47200546,0.07615879,-0.3462976,-0.4098231,-0.4154526,0.18122685,-0.3225504,0.051287662,-0.3342584,-0.21419501,-0.4023208,-0.5267488,0.050547738,-0.7616356,0.10296453,-0.43136764,-0.36021394,0.038960796,0.13907571,-0.95062166,0.09727911,-0.16589631,-0.29398865,-0.20152368,-0.3312998,0.047047794,-0.48062995,-0.374828,0.09046504,-0.3229493,-0.33159363,-0.7720714,-0.65072846,-0.45479077,-0.3279286,-0.23511611,-0.33316836,0.32122585,-0.5920913,-0.32045242,-0.1537004,0.15573333,0.19178917,0.14174828,-0.22541486,-0.71043926,-0.51578605,-0.1665168,-0.07769607,-1.387754,-0.38899338,-0.3300975,-0.4635217,-0.24674115,-0.016985755,0.4486524,-0.5912926,-0.22928597,-0.7606453,-0.3046987,-0.18308811,-0.35915324,-0.25199232,-0.15891984,-0.4499028,0.020873535,-0.3423885,-0.45933524,0.024038408,-0.3536211,-0.22704194,-0.53085905,0.021648062,-0.38380474,0.7213257,0.39911914,0.18654534,-0.14991184,0.007599437,0.45855778,0.12917838,0.17070234,0.22540711,-0.06996234,-0.46876505,-0.23949815,0.17019933,0.056358404,-0.010275645,-0.26081327,-0.4551399,-0.4629683,-0.32132614,-0.14035662,0.078231536,
0.71919376,-0.30412978,-0.041336767,-0.1487554,-0.58396864,-0.15856948,0.15401839,-0.13066469,0.026390282,-0.14395724,-0.27460408,-0.30368358,-0.13151988,0.22125562,-0.26519296,-0.17075223,-0.3559495,-0.43956056,0.297309,-0.16254109,-0.74466884,0.06686477,0.37195733,0.08679475,-0.12192739,-0.19898134,-0.060204003,-0.0019279978,0.12833868,-0.3523325,-0.83875006,0.17231624,0.057107423,-0.6063678,0.05876364,-0.5684653,-0.549957,-0.24000338,0.22051293,-0.2691911,0.05578317,-0.07172296,-0.107327074,-0.7083363,-0.52241653,0.3978833,-0.7770355,0.29406592,-0.30200392,-0.09715524,0.019315932,0.22437368,-0.81761444,-0.14280881,-0.11960967,-0.17968708,-0.22316197,-0.31293622,0.0667736,-0.4442052,-0.35554883,0.11464135,-0.08315438,-0.31763643,-0.57077885,-0.57209426,-0.40627363,-0.55542177,0.0511045,-0.06816221,0.13486812,-0.34154668,-0.30292273,-0.33964407,-0.21354215,0.15003984,0.23710792,-0.30448267,-0.13338177,-0.80111843,-0.2150573,0.097636685,-1.3643556,-0.34332818,-0.14887552,-0.22471207,-0.34086657,-0.15534098,0.30278268,-0.63529027,-0.33330587,-0.6553256,-0.30576155,-0.20240666,-0.21792634,-0.33136836,-0.1770438,-0.41060448,0.047950648,-0.5181095,-0.5462625,-0.23662043,-0.1869907,-0.6255556,-0.33151048,0.01059335,-0.24920349,0.78636956,0.117137514,0.4172433,0.12082696,0.037490565,0.6404955,-0.1717785,0.17021655,0.37941194,-0.1361734,-0.46413872,-0.11629939,0.16887823,0.041644342,0.059412714,0.099369965,-0.3902512,-0.1203955,-0.12503871,-0.22646001,0.14696428,
0.6731648,-0.1338895,0.010037898,-0.008898961,-0.3484867,-0.26614478,0.16989636,-0.08737505,-0.043863084,-0.36247137,-0.30589914,-0.61391324,-0.07486863,0.02251683,-0.2245891,-0.30575207,-0.34803894,-0.193594,-0.03589847,-0.06337089,-0.7499165,0.19894807,0.28860256,0.12500678,-0.07573637,-0.31857258,-0.01679956,-0.26519674,0.083843224,-0.44670096,-0.74534786,0.32797074,-0.09933125,-0.5259836,-0.030023519,-0.6492929,-0.6712088,-0.28242233,0.09318627,-0.53891474,0.18521692,-0.06355284,-0.27971923,-0.63126963,-0.45131335,0.34921443,-0.665586,0.38669908,-0.68716645,0.18672311,0.1514856,0.27580535,-0.49661785,-0.30776033,-0.17670006,-0.5892932,-0.20984644,-0.37304717,-0.41202328,-0.15704371,-0.47065207,-0.25972563,-0.1272429,-0.47119173,-0.40481642,-0.24568407,-0.5981064,-0.45631397,-0.22591206,-0.29216316,-0.16066742,0.023555983,-0.24389702,-0.2421164,-0.2516287,0.058782075,0.070078164,-0.4505872,-0.31153318,-0.42073464,-0.11155356,0.018316124,-1.4516406,-0.17478247,-0.2293572,-0.017462453,-0.47254142,0.118022904,0.3111046,-0.53544915,-0.36752698,-0.6141172,-0.35562924,-0.16149417,-0.11611581,-0.19645117,-0.23864935,-0.18886718,-0.21215124,-0.22386394,-0.41958818,-0.38259357,-0.27498984,-0.7097352,-0.4401313,-0.13397078,-0.23115335,0.60390246,0.15268609,0.4057967,0.19489048,0.028713146,0.5410698,-0.24534108,0.06360641,0.36241457,-0.05720336,-0.24540825,-0.14613542,0.45704323,0.091008864,-0.05411264,-0.25297293,-0.22042012,0.43531957,0.25485146,-0.36535066,0.112537935,
0.6035348,-0.036777005,-0.09724553,-0.081650905,-0.30703506,-0.21447024,-0.22641206,-0.09353099,0.009396374,-0.4284012,-0.13644816,-0.38078147,-0.017452326,-0.1372118,-0.21528561,-0.0772284,-0.20651785,-0.028711727,-0.14674293,0.04048582,-0.671224,0.014425927,0.37484905,-0.1993107,-0.108659394,-0.08061714,-0.097565114,-0.31816363,-0.091335975,-0.40602556,-0.48009112,-0.15676412,0.09057746,-0.6105734,0.12465141,-0.5587152,-0.72873336,-0.3437885,0.19617549,-0.53408605,0.11227972,-0.11291898,-0.19350101,-0.6884575,-0.2958353,0.16482298,-0.48474404,0.33446196,-0.53825593,0.14051922,-0.0071427184,0.19899952,-0.53787804,-0.23995289,-0.21270481,-0.6085967,-0.23135963,-0.16372947,-0.21871237,-0.09913389,-0.41566798,-0.14366935,0.03947913,-0.606567,-0.40135276,-0.33534655,-0.52147484,-0.1294599,-0.16230726,-0.29746714,-0.013073544,-0.3800198,-0.0013337604,-0.15796289,-0.36543354,0.23783596,0.21790664,-0.46325928,-0.679838,-0.16856977,-0.05242593,-0.19279388,-1.0373594,-0.12932755,-0.3726569,0.037605636,-0.35127306,0.029236909,0.04773664,-0.4502627,-0.13221405,-0.57498103,-0.06880704,0.0077659898,-0.19241802,0.05931188,-0.18585818,-0.26876697,-0.30343062,-0.14307837,-0.19415778,-0.33732432,-0.3210204,-0.5382241,-0.3508983,0.18869734,-0.378671,0.18302369,0.03304116,0.43451786,0.19696589,-0.015200826,0.2739191,-0.08804872,0.010965854,-0.19268069,-0.24454875,-0.08659594,-0.16513674,0.3348907,0.12605593,-0.08086227,-0.25913307,-0.33146316,0.3332787,0.566053,-0.29533473,0.22771414,
0.4384367,-0.08605667,-0.0124611575,-0.064865045,-0.16923675,-0.08469313,-0.5525265,-0.13299757,0.03312443,-0.2791794,-0.11463644,0.023941953,-0.08213132,-0.020814262,-0.205212,-0.13292879,0.0043747835,0.092399776,-0.42455605,-0.05295631,-0.3896292,-0.21643719,0.3847953,-0.35263792,-0.13082404,0.16501622,-0.016949669,-0.36796755,-0.06277824,-0.56130046,-0.06678961,-0.52127737,-0.10085513,-0.5690125,0.14530881,-0.31729928,-0.79739296,-0.23844035,0.25531906,-0.41375738,0.040830854,0.021808388,0.014474004,-0.5715728,-0.23671578,-0.3690194,-0.2674469,0.024509693,-0.7838114,-0.027217515,-0.3301835,0.19363467,-0.60396445,0.07274449,-0.09499637,-0.6067018,-0.20642905,-0.06183409,0.20093992,0.019687308,-0.49160206,0.13800523,-0.09135831,-0.52343,-0.16629024,-0.21912311,-0.5875031,0.1697512,-0.06589454,-0.40473208,0.3763022,-0.3868921,-0.47990483,0.07532165,-0.23833975,0.30170187,0.097866565,-0.17904428,-0.24299629,-0.08434872,0.03540822,-0.15900403,-0.8555143,-0.12498676,-0.5747022,0.23511826,-0.44087553,0.21936361,-0.03875118,-0.2505289,0.020966167,-0.46209288,-0.1410497,-0.107934475,-0.11632824,0.026436506,-0.23910177,-0.62180793,-0.1692997,-0.024355633,-0.28867602,0.06344753,-0.17743632,-0.37901074,-0.24156252,0.35816574,-0.27327025,0.06558875,0.15077293,-0.03500673,-0.09585559,0.012455414,0.01662861,-0.0543983,-0.25186732,-0.25317025,-0.066051,-0.16898441,-0.18308248,0.046018735,0.059277922,-0.088918194,-0.024752881,-0.43070877,-0.14644277,0.38551867,-0.573265,0.426352,
0.26022512,-0.07257692,0.023614421,-0.09578469,-0.16212012,-0.031140469,-0.39540914,-0.11671499,-0.014472532,-0.5082171,-0.31789345,0.18587485,0.25885174,0.026862528,-0.2693705,-0.16677655,-0.08286473,0.79597753,-0.2638866,-0.05349996,-0.35331255,-0.025184922,0.14843906,0.28199956,0.45131978,0.1270689,0.2239595,-0.3737342,-0.4052094,-0.37762538,0.174405,-0.5187966,0.28507233,-0.2799895,0.22646008,0.02907948,-0.6293532,-0.16044937,0.23406814,-0.03098119,-0.041781988,0.31476343,-0.10842816,-0.35571665,-0.10331103,0.0030277867,-0.13872956,0.089010134,-0.38171417,0.12821518,0.032530848,0.35054412,-0.630488,0.15405853,-0.06447785,-0.38922283,-0.12659013,0.52071464,0.08751204,0.12499437,-0.28049034,0.19519724,-0.016613558,-0.36186418,0.17192803,-0.23875314,-0.3500012,-0.2777419,-0.049382836,-0.34657767,0.3235687,-0.30917376,-0.26805642,-0.034804534,-0.18851295,0.21173461,-0.03512563,-0.0031298571,0.044147305,-0.24742812,-0.09889473,-0.16835509,-0.73071116,-0.003271865,-0.5294776,0.2775954,-0.073160924,0.24049304,-0.26442757,0.13450135,0.37389746,-0.33479938,-0.68039787,0.038277645,-0.112233095,-0.23287714,-0.04309993,-0.4832978,-0.34034583,-0.13918047,-0.027261151,0.43659127,-0.22935253,-0.1426519,-0.22885168,0.26158348,-0.16837306,0.2635676,0.05941037,-0.40229252,-0.070029125,-0.040413376,0.24736425,-0.03126869,0.018999714,-0.08239206,-0.120950416,-0.16817488,-0.08542781,-0.004903084,-0.1618332,-0.19346952,0.22913763,-0.39143592,-0.05794689,0.24306197,-0.4981193,0.2243161,
0.33618554,0.14330894,-0.07394402,0.026062768,-0.2575505,-0.012166278,-0.011567919,-0.13777447,0.014196496,-0.38811138,-0.20070764,0.026507108,0.18611324,-0.1582556,-0.19282961,0.00093677297,0.078846425,0.47649643,-0.3016605,-0.2231291,-0.083566725,0.17077205,-0.06803308,0.61451715,0.2365385,-0.03995029,0.36292437,-0.109114096,-0.39675885,-0.3113896,0.4191538,-0.3075093,0.19769469,-0.2762757,0.18604542,0.27316743,-0.30698317,-0.25147748,0.25050285,-0.14990373,-0.028239349,0.29859483,-0.14266345,-0.13031498,-0.1106075,-0.12279585,-0.044941124,0.19533916,-0.23485073,-0.24579974,0.1854047,0.16270836,-0.47665706,0.080502935,-0.084073916,-0.257974,-0.03879616,0.37389782,-0.052388083,0.06594606,-0.3182402,0.11733795,-0.09872733,-0.22188728,0.004678907,-0.27528644,-0.24798262,-0.6355069,-0.16711365,-0.08028883,0.23196201,-0.1316313,-0.20455766,-0.06285776,-0.1987357,0.05004121,0.14815457,0.19142185,-0.6499202,-0.19721201,0.01489181,-0.116552666,-0.6517018,-0.28912786,-0.1543432,0.12415727,-0.08369605,0.1915253,-0.16355477,0.07502209,0.17745134,-0.4529775,-0.46434465,-0.030242492,-0.09369998,-0.13595691,-0.17394452,-0.2543853,-0.14112185,0.15875293,-0.11758679,0.13507667,-0.17476125,0.0663626,0.035073552,-0.052840147,-0.13262145,0.14867306,-0.016703287,0.010754126,0.014184921,-0.07990962,0.065655224,0.09587375,-0.26614916,-0.1598864,-0.17530818,-0.096511126,0.012376464,-0.140409,0.1393983,-0.16858424,0.0018168708,-0.4572986,0.06822919,0.058837503,-0.23128578,0.2616845,
0.40622628,0.22035493,0.05939663,0.041407775,-0.1089301,-0.17982411,-0.023914317,-0.024022596,0.010635802,-0.12142603,-0.20845386,-0.16759196,-0.21245776,0.01732355,-0.16474544,-0.20065172,-0.16469517,0.12568307,-0.5047939,-0.100548275,-0.07508572,-0.017099533,-0.22300428,0.602425,-0.006974573,0.040662553,0.46128288,0.055818047,-0.28814042,-0.26902044,0.43445143,-0.1620901,0.006771169,-0.14601594,-0.1828533,0.25170383,-0.24837485,-0.30452585,0.13801828,-0.17091827,-0.09183892,-0.085479625,-0.060543425,0.049474586,-0.0714516,-0.20872967,0.0019871101,0.12524478,-0.26763326,-0.52270365,0.24486542,0.31448525,-0.5715674,-0.07226944,-0.09849688,-0.13694422,0.078030385,0.36230883,0.26910645,-0.17175372,-0.22943798,0.16871093,-0.007689938,-0.26605406,-0.18492304,-0.4061747,-0.1386665,-0.47680968,0.0061019184,-0.0038818358,0.12325154,0.08260108,-0.06782996,0.15318193,-0.08617166,-0.12974562,0.03711611,0.1731312,-0.6607954,0.13659032,-0.008974305,-0.21381304,-0.28104722,-0.36688903,-0.33519098,0.15139766,-0.40409854,0.16642782,-0.099344306,0.12071281,0.13444628,-0.30323187,-0.24402352,0.04466954,-0.008223541,0.007165818,-0.26671964,-0.04314281,0.033970445,0.065564185,-0.10645756,-0.16289909,-0.07197389,0.3496664,-0.03333928,0.04770151,-0.077345826,0.31312823,0.12089182,-0.22210054,-0.14306518,0.040995568,0.16722827,0.2018322,-0.83319587,-0.11155945,0.04464668,-0.09585761,-0.04755911,0.07869244,0.3125183,-0.11683008,-0.21341541,-0.33785906,0.3513293,0.08968427,0.17435125,0.3879436,
0.1529865,0.28911066,-0.048354615,-0.06377716,-0.07303976,-0.12334311,-0.25996795,0.025592936,-0.0057632434,-0.034902826,-0.06306763,0.05719429,-0.42819753,0.21096097,-0.08236416,-0.13429122,-0.015892237,-0.15445475,-0.3352164,-0.0947643,0.079280764,0.17844355,-0.21737137,0.5324249,0.15670438,0.13103698,0.29196265,-0.04832114,-0.3175977,-0.3689089,0.5447351,-0.10083248,-0.32071695,-0.08313513,-0.2810891,0.104405805,-0.33644974,-0.3516976,-0.02471287,-0.078678735,0.051188998,0.066549025,0.0173101,0.02059607,0.060389105,-0.059742622,0.07434197,-0.06964118,0.047094285,-0.7569967,0.25336686,0.32058084,-0.86368424,-0.47058564,-0.120948546,0.008642066,0.101175256,0.3388433,0.44786325,0.23202427,-0.25202665,-0.054784935,-0.06407605,-0.15579477,-0.2554618,-0.049233686,-0.048723288,-0.22189647,-0.009082616,0.044678126,0.28382233,0.100801446,-0.0047270823,-0.15217243,-0.08645361,-0.15553924,0.099343605,-0.0028360516,-0.664656,-0.071644835,-0.108795494,-0.18562429,-0.16132051,-0.1343416,-0.43101814,0.060811237,-0.713472,0.3160725,-0.07507558,-0.041230515,-0.059285775,-0.2920756,-0.22099243,0.018681668,0.0581952,-0.06433398,-0.16769113,-0.11776258,-0.0076643447,-0.21827649,-0.043342467,0.09234943,0.010236337,0.21202388,-0.15115589,0.29358166,-0.16916707,0.23352924,0.11667089,-0.089785255,0.02419098,-0.004508339,0.184581,0.18508083,-0.86372113,-0.0528594,0.045373406,-0.057561718,-0.05825054,0.15811631,0.3022251,-0.02801348,-0.21485685,-0.11119025,0.12659061,0.21177648,0.07787815,0.5996306,
0.2527307,0.2661756,-0.031702798,-0.0746114,0.028259078,-0.041647617,-0.3040257,0.028303307,-0.057609875,-0.11749678,-0.016351715,0.21434405,-0.3256111,0.25403664,0.059233934,-0.006207843,-0.23391718,-0.010756784,-0.26071367,-0.09884817,-0.11689813,0.5728864,-0.26778904,0.19977883,0.20506206,0.06080482,0.4060978,-0.11594024,-0.0826398,-0.33852744,0.6065802,-0.05046512,-0.2960964,0.0050034616,-0.24110402,-0.112212405,-0.34904322,-0.18477054,-0.054177977,-0.109617464,-0.019466098,0.00020153509,-0.040015213,-0.0147202695,-0.04634607,-0.14147203,-0.2912396,0.035417296,-0.012376293,-0.6850032,0.037837815,0.25495192,-0.89998955,-0.105286,-0.060815327,-0.06872793,-8.436985e-05,0.1757101,0.7392995,0.45751122,-0.16392735,-0.18204063,-0.062421985,-0.07996836,-0.03070994,-0.09751074,-0.11371853,-0.15080552,0.057258192,0.009836059,0.18849693,0.19055852,0.0046904013,-0.1481223,-0.07565764,-0.26640913,0.07190371,0.10150033,-0.47350034,-0.33979484,-0.12484426,-0.044749334,-0.17751071,-0.084459566,-0.49407965,0.09117648,-0.6488672,0.23357354,-0.44371456,0.05191884,-0.28081006,-0.34861296,-0.39957556,-0.054663748,-0.034849875,-0.09704633,0.00013010074,-0.19758944,-0.05810336,-0.042381093,0.026701776,0.077766284,-0.0015683401,0.06414104,-0.10025316,0.13336639,-0.18479703,0.096029505,0.08585099,0.052427344,-0.09342719,-0.031019658,0.39896056,0.18868035,-0.6379308,0.018941179,0.019283257,0.033401556,-0.07519753,-0.010272699,0.36665532,-0.014254049,-0.09771775,-0.39185134,-0.031430516,0.034654874,0.61133707,0.5659579,
-0.19902632,-0.21165788,-0.26148593,-0.047831856,0.20157868,0.06295532,0.45686698,-0.049210753,-0.0068479464,0.003938675,0.09333934,0.15520576,0.17811789,0.07560665,-0.10447874,0.017509017,0.22965048,0.2234497,0.17788127,0.13045232,-0.48813635,0.48471266,0.05594837,0.24853052,0.0051796073,-0.0019786162,0.09435017,-0.12371324,-0.054701194,-0.16488308,-0.3518391,0.009111844,0.03611229,0.06787277,0.534157,0.30001977,0.0885221,-0.39121646,-0.036234826,0.0099537,-0.12990882,0.112516776,-0.02361855,-0.19478844,0.16856371,-0.03882536,-0.026753359,-0.24784245,-0.018826472,-0.005037126,0.38951275,-0.040939752,-0.02657889,0.06103396,0.045881934,0.08426426,-0.13799348,-0.33217573,-0.11629924,-0.01689411,-0.08388909,0.03426235,-0.0400042,-0.09702364,-0.15973821,-0.03705313,0.102049604,0.016350452,0.023404121,0.071348056,0.45065045,0.022468526,-0.12682824,-0.016332397,-0.1440334,0.3091474,-0.005533839,0.051684927,-0.030543365,-0.01582794,-0.067694135,-0.27610248,-0.32430914,-0.12203252,0.0758938,-0.003534134,-0.02066225,-0.2656876,-0.053242628,0.371162,-0.21527311,0.026223393,-0.22677332,0.047156718,-0.0074377432,0.071681105,-0.060526326,-0.07009107,0.016307693,-0.23708285,0.50959355,0.002495702,-0.27351284,-0.28184012,-0.17821142,-0.032499336,0.52550274,0.03190291,-0.01888959,0.021725547,-0.12918833,0.058526494,-0.34434494,0.022901706,0.17157501,-0.07877076,0.0012763054,-0.0011825939,-0.11878433,-0.29782158,0.26298687,-0.056085736,0.33782995,0.48012665,0.0075143473,-0.21941388,0.080954485,0.021345692,
-0.33454078,-0.13387865,-0.16755389,-0.25698853,0.17370875,-0.10447419,-0.10584069,-0.061307147,-0.07859015,0.027542025,-0.046236336,0.1375089,0.17948209,0.071164094,-0.013770028,-0.031056652,0.2338103,0.1404597,0.27905214,0.15546021,-0.57039905,-0.13950835,-0.020427784,0.27903357,-0.03708888,-0.16899346,-0.27038997,-0.19712512,-0.06591519,-0.108886115,-0.2331313,0.029276548,0.098416515,-0.18693368,-0.24883616,0.28723285,0.05109587,-0.20536372,0.08370677,0.056209885,-0.041252244,0.14781508,0.007676513,-0.13193847,0.23603006,-0.08299512,0.040649377,-0.05820505,0.016252732,-0.073281996,-0.2955745,0.05760464,0.030238332,0.15977582,0.05875147,0.06097138,-0.1618704,-0.37510502,-0.22825815,0.024067828,-0.34098706,-0.052862603,-0.052285,-0.16304679,-0.22990768,0.12860835,-0.065794095,-0.023412062,0.0110801235,-0.020097537,0.3140315,0.08905075,-0.020542568,0.06539953,-0.10550004,0.2017983,0.055588894,0.040086195,-0.12067009,0.068383805,-0.1572527,-0.16631243,-0.47514746,0.07213774,0.2945778,0.050287522,-0.06171443,-0.035699844,-0.16917633,0.27104998,-0.1693688,-0.048990943,-0.21941401,0.101460375,-0.027056335,0.33981186,-0.003313966,0.13688767,0.037443224,-0.25229034,0.4654144,0.17478164,0.10405426,-0.404277,-0.036288004,-0.22144341,0.5158557,0.0071402537,-0.057899892,0.002411725,-0.1745324,-0.028570274,-0.34067038,-0.06846141,0.43136823,-0.020919358,-0.21561739,-0.05467769,-0.1763476,-0.1543511,0.37936,0.045984685,0.2559761,0.839754,-0.0028867105,-0.31554002,-0.033623036,-0.04493194,
-0.1651521,-0.19141251,-0.24105981,-0.13838288,0.14944609,0.040802553,-0.023400988,0.053940706,0.0011535735,0.037448,-0.17188923,0.020598138,-0.08330268,-0.10875291,-0.09786634,-0.17083989,0.047006425,0.27238402,0.2536607,0.30590922,-0.67067385,-0.47294125,-0.0336772,0.17624065,-0.26242927,-0.17890163,-0.45388606,-0.08038547,-0.016191958,-0.57117987,-0.17886506,-0.15472308,0.19981474,-0.19110022,-0.1258427,0.38336378,0.2154779,-0.1666558,0.12038167,-0.10509584,-0.013049818,0.3497296,-0.12437368,-0.074823365,0.10115673,-0.042566504,-0.18565728,0.12597075,-0.18796822,-0.10681671,-0.09720409,0.058764745,-0.04582714,0.17850076,0.029084293,0.18154463,-0.21384898,-0.34502017,-0.14208995,-0.07132678,-0.23423216,-0.011249558,-0.26685312,-0.26456612,-0.3521827,-0.051481586,0.058631215,-0.039934352,-0.08664406,0.30006573,0.029063785,-0.023423517,-0.16429396,0.14893913,-0.058971256,0.3687508,-0.13675848,0.00738705,-0.097434096,-0.15099949,-0.094655864,-0.18313505,-0.611615,-0.089675374,0.13727126,-0.023472838,-0.10512863,0.33732066,-0.20676488,-0.05708612,-0.35727113,-0.34724593,-0.35179746,0.11603877,-0.11780986,0.42378265,0.013805945,0.5815492,0.02558834,-0.18221974,0.21504898,0.10152226,-0.2368271,-0.29781175,-0.012666266,-0.039412677,0.6001192,-0.22462143,-0.009050667,0.14032973,-0.3044523,0.035315678,-0.31055087,0.038732663,0.21943922,-0.083206,-0.21503355,0.0037125333,-0.18629685,-0.34464613,0.25617504,-0.24663606,0.37614134,0.12469902,-0.057749465,-0.33900148,0.24263352,-0.026057536,
-0.041511063,-0.36838993,-0.4325341,-0.13362548,0.08240724,-0.080594145,-0.18398076,-0.07799778,-0.09288395,0.022488741,-0.13579698,0.18330026,-0.047334902,-0.18396284,-0.16538635,-0.16222984,-0.32858372,0.27597755,0.17804143,0.17365263,-0.7400318,-0.35203862,-0.082934834,0.12017349,-0.48581514,-0.31475103,-0.583499,-0.09717119,0.01807613,-0.48580927,-0.082214326,-0.10761559,0.29150972,-0.15386774,-0.03406011,0.17807151,-0.31799364,-0.08697246,0.29660037,-0.095885,-0.045757536,0.30409932,-0.041764576,-0.09458433,0.23198493,0.08910816,-0.3595344,0.3219027,-0.19649473,0.014132182,-0.0928166,-0.18159452,-0.14340141,0.21880211,-0.10710589,-0.1918777,-0.067136176,-0.33230197,-0.11743871,-0.16191527,-0.60570586,-0.044303074,-0.34135684,-0.1436593,-0.41067728,-0.030650873,0.052855957,-0.09861,-0.22836278,0.147075,-0.01639026,0.12459163,-0.04023663,0.03340587,0.09717219,0.56613165,-0.43562776,0.02152099,-0.22955455,0.04512233,-0.18742126,-0.3696247,-0.8023481,-0.19370294,-0.09847231,-0.109903485,-0.21603777,0.04392457,-0.23193787,-0.6839999,-0.23914942,-0.4921929,-0.59949136,0.04162405,-0.23340529,0.25641406,-0.036618244,0.7421764,-0.07188862,-0.3624288,-0.26843318,-0.24722038,-0.5590339,-0.31331283,-0.39945284,0.5355291,-0.20200466,-0.34051147,-0.13469906,0.18235019,-0.5289964,-0.022901703,-0.2296335,-0.053065438,0.014102238,-0.10695808,-0.2375073,-0.17996119,-0.42062616,-0.055339202,0.14576374,-0.23153526,0.078335926,-0.12262095,0.1525,-0.06300205,0.57908624,-0.10034336,
-0.2773096,-0.03223244,-0.55379057,-0.20945191,0.11980189,-0.031616718,0.028746428,-0.0711334,-0.034836285,0.04973703,-0.14236154,0.25156116,0.25826988,-0.24894504,-0.23548752,-0.1867292,-0.13403247,0.26779386,0.204306,0.10890226,-0.39939713,-0.21410371,0.050917298,-0.38271672,-0.52777207,-0.20440258,-0.5038988,0.2013994,-0.038308036,-0.2972047,-0.49544385,-0.11972271,0.23499414,-0.36971277,0.1801573,0.17415674,-0.38360783,-0.25005803,0.22033826,-0.17413826,0.12654081,0.14607841,-0.17754619,-0.2610332,0.13554394,-0.094985425,-0.54133034,0.23896918,-0.17601687,0.011385053,0.15511745,-0.123089015,-0.36724684,-0.016740358,-0.17043729,-0.29716066,0.37380812,0.032499783,-0.09208938,-0.24043006,-0.6888557,-0.11295295,-0.095438346,-0.079868995,-0.6960585,-0.049640525,-0.030947646,-0.1552764,-0.4081774,-0.2259467,-0.08190863,-0.3593121,0.09892846,-0.10814632,-0.030922726,0.5319966,-0.26313874,-0.061957993,-0.25511575,-0.009023654,-0.14290018,-0.30452877,-1.041638,-0.18729705,-0.08733206,-0.14811105,-0.35334376,-0.070003256,-0.060960792,-0.38730538,0.031852737,-0.70590883,-0.68932575,0.04675322,-0.26091233,0.19395284,-0.23267849,-0.06749694,0.05690857,-0.4401293,-0.16688022,-0.48637477,-0.49286884,-0.18319765,-0.25903773,0.21392517,0.18033679,-0.039323602,-0.12932362,0.060283974,-0.3012503,-0.025571,0.056694828,-0.1377815,-0.14956266,-0.11250564,-0.20079915,-0.23365559,-0.360518,-0.3500895,0.06950753,-0.06683347,-0.06880475,-0.13997662,0.09158692,0.22203666,0.20045803,-0.1953905,
-0.7161022,0.18348347,-0.5911041,-0.09855103,-0.20978451,-0.16724885,-0.010885893,-0.058479924,0.024378257,-0.11917091,0.008973345,0.13952892,0.48761445,-0.30761766,-0.18728007,-0.046084967,-0.06993581,0.1314822,0.27419022,0.1832173,-0.8635907,-0.067894414,0.105059095,-0.27911577,-0.34331417,-0.2787508,-0.2567656,0.28207645,-0.086110994,-0.5641512,-0.67486113,-0.22062609,0.1389976,-0.43078685,0.23046924,0.16687863,-0.2113354,-0.21805085,0.16908668,-0.23500668,0.0113842795,0.046856564,-0.3943032,-0.42468667,0.083609864,0.0031262555,-0.3424602,-0.23426428,-0.1524515,0.06411291,0.02565745,-0.23726526,-0.3510363,0.3338892,-0.2657017,-0.2536861,0.2938686,0.09846928,-0.23880976,-0.2763539,-0.762329,0.00459188,0.047382217,-0.10954219,-1.0053755,-0.21449609,-0.1246195,-0.11422694,-0.47794917,-0.26473963,0.038109545,-0.19811359,0.016308827,-0.24355225,-0.059576936,0.5943326,-0.1967477,-0.0018976299,-0.4317064,-0.31536043,-0.2524309,-0.2532957,-1.2610959,-0.21279149,-0.27329776,-0.037279572,-0.24498855,0.086074285,-0.20517047,-0.09178206,0.09180926,-0.8744586,-0.6202716,-0.0034997903,-0.40745774,0.23462065,-0.13286203,-0.48668224,-0.20673366,0.10019615,-0.27038056,-0.5683199,-0.57342255,-0.300461,-0.3147748,0.03079804,0.5740862,0.13422291,-0.3364114,-0.079732575,-0.12406919,0.018809438,-0.12702654,-0.039572947,-0.16325812,-0.069625355,-0.28704596,-0.24899174,-0.41170684,-0.46923748,0.192755,-0.055859257,-0.05533362,-0.30940542,0.16177677,0.22852562,-0.030571526,-0.07896065,
-0.4694718,0.39361346,-0.62119126,-0.02384773,-0.032974046,-0.17023012,-0.03272277,-0.020167716,-0.07817619,-0.24715187,0.08189802,0.06590578,0.22690368,-0.11881346,-0.1687935,-0.2099023,-0.036589324,0.2855731,0.27655834,-0.09856711,-1.3121482,-0.16691482,-0.081746,-0.18511297,-0.36054078,-0.27571294,-0.053614575,0.1502946,-0.24073626,-0.28622556,-0.39451364,-0.21197791,0.12583496,-0.31162444,-0.028287072,0.0031344492,-0.34790105,-0.09347107,0.27154234,-0.092099816,-0.18242423,0.0048020054,-0.45592308,-0.33879173,0.10554285,0.25993267,-0.34311917,-0.4907328,-0.26859874,0.11994898,-0.119993605,-0.35245764,-0.010343758,0.25522932,-0.23980516,-0.35066128,0.08116037,-0.068464085,-0.30695167,-0.15479878,-0.6838265,-0.10067492,0.064652465,-0.17312111,-0.96092,-0.040819388,-0.07789668,-0.47662959,-0.49942884,-0.062501304,0.2861571,-0.012805734,0.29942417,-0.4693306,-0.15972704,0.52116853,0.15605144,-0.038191624,-0.4476712,-0.321041,-0.34483853,-0.35454416,-1.347568,0.1808086,-0.21054532,0.027252182,-0.32383588,0.36833054,-0.245785,-0.03370577,-0.12162581,-0.92098206,-0.22409132,-0.019667318,-0.3710494,0.2863617,-0.07038482,-0.26701233,-0.17183618,0.3736419,-0.13957337,-0.37705323,-0.47282055,-0.24190924,-0.24992807,0.07761477,0.1986327,-0.1248027,-0.19148163,-0.18278913,0.12891077,-0.013267271,-0.18664432,-0.08129775,-0.17489365,-0.16361345,-0.43016866,-0.18916339,-0.44250548,-0.17718358,0.23028597,-0.0664142,-0.023281874,-0.10187178,-0.029412622,0.200454,-0.44330564,-0.16163509,
-0.38571423,0.4092042,-0.6347701,-0.11806258,-0.06960817,-0.1424193,0.12019091,-0.07783557,0.03364607,-0.26238856,-0.07207645,-0.062146842,0.09090036,-0.15202248,-0.109158814,-0.22917254,-0.07900596,0.05565056,0.2723824,-0.27541366,-1.3939505,-0.04476112,-0.1463116,0.10424447,-0.010431811,-0.17126445,0.11797303,0.06909829,-0.24656951,-0.37377453,-0.39119878,-0.402871,0.14193653,-0.24078976,-0.19860063,-0.07820609,-0.3775073,0.09608522,0.035906974,-0.117612995,-0.27428508,0.10773879,-0.5352045,-0.11574391,0.0050954847,0.2333193,-0.341987,-0.6197165,-0.18231103,0.13942795,-0.043135032,-0.25702786,0.4058319,0.15462245,-0.1577899,-0.1747588,0.064690605,0.20629258,-0.46090922,-0.22444157,-0.6419173,-0.12599921,0.20813403,-0.25613865,-1.0480095,-0.027581047,-0.14680766,-0.52062833,-0.70182365,-0.0692619,-0.04733583,0.15118162,0.076601416,-0.41017017,-0.0836339,0.34711927,0.14991468,-0.14034204,-0.25325876,-0.46034437,-0.24520609,-0.4194155,-1.3075708,0.05716915,0.1415774,0.38801318,-0.5580812,0.45141777,-0.54172474,0.3894762,-0.28122714,-0.87112445,-0.4002884,-0.10897509,-0.3369662,0.17725876,-0.27442402,-0.1302501,-0.06057119,0.38460824,-0.130872,-0.03077151,-0.51413137,-0.3587394,-0.355714,-0.07807225,0.18889916,-0.17493568,-0.049888987,-0.40065232,0.019611474,0.017436808,-0.28426078,-0.20702206,0.06556597,-0.25034544,-0.17760357,-0.20511712,-0.44889617,0.009494809,0.1569426,0.135833,0.23873518,-0.10674143,-0.017552746,0.25219625,-0.09393197,-0.15490203,
0.16166946,0.11547265,-0.6628299,-0.15094668,-0.11658784,-0.2450324,-0.06463719,-0.24069665,-0.033224348,-0.17395926,-0.049475282,0.15522882,0.17196384,-0.22696142,-0.05129901,-0.13049427,-0.20267172,0.086565465,0.29713514,-0.20763314,-1.1269206,-0.13954978,-0.21591195,0.0009379335,-0.16846643,-0.17357226,-0.039158657,0.05904307,-0.34554675,-0.42839757,-0.67300093,-0.24553166,-0.0653169,-0.4081628,0.11657612,-0.18502218,-0.4802455,0.017953303,0.24837704,-0.07581348,-0.39919925,0.18503359,-0.57331604,0.088987194,0.102691546,0.15271987,-0.5233651,-0.13484478,-0.15905064,0.070528045,-0.07918839,-0.4488398,0.43316397,0.2864081,-0.12966488,-0.23207407,0.07148512,0.23292916,-0.44323373,-0.15348172,-0.84874976,-0.18336096,0.0135804815,-0.30017337,-1.0285147,0.08848694,-0.11641639,-0.6948771,-0.7085032,0.064268455,0.011181027,-0.17670874,-0.046734437,-0.5170845,-0.08613782,0.60830444,-0.066034265,0.11490779,-0.053532388,-0.5521789,-0.43817452,-0.30934033,-1.3241944,-0.1205362,-0.085191004,0.15070702,-0.8797189,0.18743397,-0.47997674,0.39612985,-0.56484646,-1.0962653,-0.24526766,-0.23483993,-0.37496552,-0.04603169,-0.14594778,-0.19926266,-0.24454989,-0.019139912,-0.16931807,0.19265093,-0.81478095,-0.5861952,-0.4594541,0.08324794,0.1882331,-0.49943912,-0.057516154,-0.5826601,0.16850163,-0.08557633,-0.281564,-0.35638532,-0.21335433,-0.43007472,-0.013022781,-0.19665876,-0.44147256,-0.069082096,0.1346639,0.08224959,0.3399119,-0.19121772,-0.13659206,0.28766152,-0.4657828,-0.35102665,
0.20060953,-0.20058294,-0.8119515,-0.31666052,0.1481673,-0.17325976,0.10268586,-0.22995414,0.024753252,-0.48590758,-0.024806125,0.23169541,0.27959,-0.45538756,0.036232393,0.034829363,-0.28797695,-0.00832653,0.14992894,-0.041299388,-1.2315055,-0.2365738,-0.0825649,-0.056105804,-0.1550991,-0.28767347,0.03858581,0.107830234,-0.39719138,-0.46659955,-0.49778643,-0.20947587,0.097453505,-0.24924022,0.43650973,-0.102400064,-0.06441398,0.10295678,0.26570615,-0.007864218,-0.38136193,-0.024169441,-0.7575358,-0.121234655,-0.017503878,-0.18276404,-0.6088866,0.11199068,-0.19173679,0.0006428055,0.0040865866,-0.41981733,0.30161703,-0.078638025,-0.18535276,-0.33264187,0.027151743,0.34200758,0.05375412,0.17938454,-0.75190616,-0.20994554,-0.14420891,-0.24199887,-1.0115997,0.02062444,-0.05613615,-0.6755779,-0.7172928,-0.09565145,0.053587355,-0.54163533,0.13074444,-0.52420664,0.02339424,0.89408475,-0.09971075,0.07712139,-0.03819752,-0.26957193,-0.43732044,-0.46468082,-1.5241433,-0.24791934,-0.608241,-0.10671295,-0.63851726,0.45435357,-0.15020591,-0.20795546,-0.6473356,-1.0369439,-0.027789602,-0.48030457,-0.24670094,0.047598723,-0.32061037,-0.27980596,-0.49866536,0.078956164,-0.3785859,0.18829963,-0.70832187,-0.34979108,-0.4402692,0.23708068,0.012735211,-0.5563404,-0.1457529,-0.5789035,0.23133288,0.019249717,-0.19315796,-0.26433378,-0.4194568,-0.31191146,0.033327967,-0.16267687,-0.31950676,-0.023062821,0.15825719,0.03856144,0.11915946,-0.15282016,0.13761568,0.22545952,-0.6479503,-0.103169255,
-0.08587605,-0.47612718,-0.8891291,-0.28393015,0.022978593,-0.29872313,-0.010269128,-0.17750989,-0.09319624,-0.46961382,-0.25326866,-0.008749012,0.30182606,-0.6725664,0.1456773,0.011637424,-0.1321316,-0.12552886,-0.16900508,-0.14082064,-1.1565704,-0.3421922,-0.29110652,-0.022948408,-0.16468742,-0.15376346,-0.026179012,0.13843001,-0.4027295,-0.2546866,-0.4300796,0.10415819,0.046409596,-0.28532967,0.3220034,-0.29462266,-0.39936554,0.13246933,0.469328,-0.15050966,-0.50323755,-0.13937624,-0.68916744,-0.19443224,0.15302189,-0.14263771,-0.64651084,-0.03704247,-0.22204103,-0.36674947,-0.07206425,-0.10455613,0.040037125,-0.033902347,-0.1975423,-0.2018142,0.10198688,0.20007427,0.41978666,0.052534927,-0.65469813,-0.17541176,-0.2836552,-0.26402116,-1.020515,-0.12093317,-0.12160422,-0.9557975,-0.7897754,-0.1487582,-0.059491523,-0.3170292,0.07633666,-0.38809022,0.32541275,0.6832047,-0.3215477,0.43797457,-0.15019903,0.12772419,-0.44472373,-0.4185513,-1.5779623,-0.19784375,-0.25453228,-0.10977715,-0.83350855,0.59229326,-0.035584293,-0.70953107,-0.8928027,-0.9813114,-0.19136812,-0.44396088,-0.35191417,0.18719219,-0.17690451,-0.24633235,-0.42185536,0.30826727,-0.44471386,0.10911411,-0.7873446,-0.26574752,-0.42767748,0.074337795,0.06004282,-0.70191383,-0.23561634,-0.24755178,0.18649168,-0.05157926,-0.04694275,-0.26976237,-0.2907093,0.20508887,0.058330316,-0.13960104,-0.24130242,-0.026146285,0.07995047,0.010900389,-0.023966216,-0.19046225,0.06790458,0.17530683,-0.37853763,-0.048456047,
-0.21382324,-0.3280546,-1.1601532,-0.31659314,-0.09794102,-0.14532208,-0.09904052,-0.008353761,-0.09806041,-0.39286005,-0.28165767,-0.014373317,0.066069946,-0.72006476,-0.13512765,-0.0129531,0.1437213,-0.17990436,-0.15553346,-0.079372354,-1.069878,-0.3760323,-0.3513706,-0.23874001,0.35369083,-0.31956825,-0.2637787,-0.086463295,-0.72552425,-0.38590503,-0.41351613,0.07146422,0.0448946,-0.2679923,0.30451712,-0.50187147,-0.5374201,0.2322295,0.14825265,-0.13418576,-0.2293036,-0.24432623,-0.5175565,0.04023048,-0.021082208,-0.12924331,-0.842715,-0.2201456,0.10853638,-0.28214097,-0.023804925,0.16686107,-0.16789337,0.25543264,-0.14603552,-0.10099387,0.06981031,-0.06785097,0.42207393,-0.26336762,-0.668811,0.0075282813,-0.4498499,-0.29045257,-1.0703137,-0.1357488,-0.21664116,-0.7540148,-0.6590321,-0.28760275,-0.23961514,-0.42776302,0.14605181,-0.5614444,0.50521487,0.5159048,-0.13857219,0.6506729,0.1529928,0.20086367,-0.26946288,-0.41638294,-1.407301,-0.2992473,0.063378006,-0.25383186,-0.5120422,0.39297345,0.08303142,-0.7661754,-0.57696456,-1.0372895,-0.4016225,-0.37558275,-0.24888504,0.25102,-0.06153453,0.08777199,-0.48993623,0.10855324,-0.57730603,-0.11323986,-0.8111352,-0.4455796,-0.3956831,-0.087458625,0.09254894,-0.80676955,-0.23506728,0.02483854,0.18426004,0.0125093255,-0.21833597,-0.21337672,0.0009560637,0.3000034,0.033866823,-0.18674156,-0.22600609,-0.14023869,0.2134867,0.027672943,-0.11287676,-0.27337065,-0.13756593,-0.0035352658,-0.12493898,-0.1315776,
-0.12849942,-0.13300928,-0.98648137,-0.3023306,-0.21640204,-0.2257952,-0.12502986,-0.09969586,-0.06220284,-0.59637094,-0.44822103,-0.017034372,0.096300006,-0.4320283,0.1284883,0.061385125,0.17511435,-0.23660325,-0.28005126,-0.26801112,-0.93764734,-0.16245855,-0.29534793,-0.037372738,0.39240187,-0.451443,-0.045420308,0.09980893,-0.73820585,-0.4815974,-0.18933098,-0.08325525,-0.04924504,-0.45655355,-0.0117676025,-0.56805396,-0.5353584,0.04664579,0.28009975,0.037895486,0.018324606,-0.08460787,-0.62799907,-0.09194161,-0.12627977,-0.024318416,-0.8359843,-0.006318865,0.008310127,-0.46778286,-0.12823322,0.24092974,-0.05300154,0.103279516,-0.1769859,-0.30060625,0.019994196,-0.034570534,-0.23067378,0.10162207,-0.5536202,-0.034014784,-0.3995118,-0.360669,-1.3113718,-0.1930792,-0.23892324,-0.7783958,-0.6580977,-0.65601605,0.077724256,-0.18382768,0.12642922,-0.96610653,0.31934,0.17879976,0.23078108,0.44382578,-0.048354335,-0.085463494,-0.29439557,-0.36019063,-1.2662588,-0.2020238,-0.014861661,-0.20022637,-0.58834815,0.12761895,0.09304633,-0.6882251,0.012078606,-1.0212772,-0.18362062,-0.40923885,-0.43135846,0.045555275,-0.27189967,0.035386406,-0.57248694,-0.10007988,-0.2730103,-0.15222669,-0.55458516,-0.30768433,-0.5687621,0.09251125,-0.054429926,-0.56481063,-0.18596269,0.22445336,-0.30972716,0.05714308,-0.011376181,-0.5158749,-0.2961972,0.1974309,-0.5782372,-0.16241968,-0.14154428,-0.13254556,0.06533821,-0.026145129,-0.22686307,-0.5785941,0.054683637,-0.5286796,-0.25357714,-0.2511243,
-0.21856564,-0.24792778,-0.73572713,-0.5139892,-0.2153272,-0.26350692,0.08706593,-0.058606725,-0.050900694,-0.31182113,-0.029150827,0.021035254,-0.032126676,0.03476493,-0.24862921,-0.25371748,-0.010295895,0.0020354858,-0.29462975,-0.06257036,-0.86226577,-0.17479001,-0.18539506,0.005800721,0.32465234,-0.3828942,-0.0764612,-0.08108578,-0.62292707,-0.8020582,-0.1309091,0.084240474,-0.022785151,-0.35120493,-0.08442519,-0.6317104,-0.6675902,-0.049888134,0.16387025,-0.14879699,-0.07082183,0.054827694,-0.5563228,-0.027498111,-0.4699282,-0.10137066,-1.122131,0.007779427,-0.12908573,0.09410102,-0.15174887,0.15815666,-0.061394542,0.23668224,-0.36132756,-0.66650707,-0.23606078,-0.46258074,-0.46042264,-0.00011178447,-0.90027535,0.0126730595,-0.24941765,-0.43079424,-1.3513576,0.08934193,-0.17462355,-0.67035496,-0.92266405,-0.58303535,0.12870324,0.055227272,0.059415027,-0.90684664,0.0070829983,0.20216392,0.22104776,-0.0004345764,-0.37037158,1.0567543e-05,-0.2179411,-0.40365207,-1.2272309,-0.6561053,-0.12666245,-0.04061164,-0.56486213,-0.08904029,0.26656082,-0.6389896,0.25384456,-1.2173191,-0.20449223,-0.3643521,-0.45377773,0.006039472,-0.18207574,-0.1345699,-0.37242272,-0.1867694,-0.103000864,-0.08570961,-0.41173726,-0.064510286,-0.6820985,0.09395497,0.12360998,-0.25600713,0.0061418717,0.034283765,-0.40075266,-0.039188422,0.19479364,-0.44547927,-0.19268568,0.4573574,-0.47998482,-0.18471889,-0.19243881,-0.052526303,0.14129923,-0.10398616,-0.091338836,-0.4354097,0.06415597,-1.1485586,-0.15775102,-0.13335456,
-0.16730925,-0.64557105,-0.43615517,-0.42072788,-0.028942559,-0.22389229,0.09055356,-0.20243527,0.026165951,-0.4166599,-0.3544018,-0.21411404,-0.12681782,-0.08396683,-0.2819088,-0.5239748,-0.27021396,0.03475701,-0.14979199,0.05381685,-0.57139593,-0.11763604,0.2231182,-0.15364157,0.1262589,-0.23275456,0.064143665,-0.119103685,-0.18711819,-0.7754748,-0.099303536,-0.1486671,0.05897304,-0.45157254,0.015305683,-0.6121556,-0.68227774,-0.057645526,0.025525283,-0.3093731,-0.19014144,-0.16656625,-0.40734872,0.048826326,-0.37977362,-0.29363596,-0.84722376,-0.2535643,-0.5023402,0.419771,0.057987384,0.13885856,-0.2798945,0.02784767,-0.27806345,-0.70846444,-0.4341701,-0.27698958,-0.4296969,-0.17246483,-0.7142016,0.037738577,-0.2927967,-0.4530519,-1.0229999,0.13604799,-0.10185633,-0.453288,-0.85688955,-0.5134081,-0.100182,-0.10241538,-0.34741235,-0.7571307,-0.0012369183,0.15780519,0.019291727,-0.16096997,-0.18421607,-0.16279522,-0.30326277,-0.34723413,-1.0868014,-0.5691415,-0.19111615,-0.2370882,-0.54685336,-0.110691406,0.48110947,-0.60846454,0.310711,-1.0981773,-0.1409176,-0.36116758,-0.4285593,-0.22161333,-0.16111198,0.07172832,-0.4561973,0.04053299,-0.24026898,-0.29599732,-0.50946116,-0.08912194,-0.76163965,0.07623313,-0.12554453,-0.13827936,-0.19260396,-0.11319569,-0.25940835,-0.012079078,0.12367864,-0.13159156,-0.2505936,0.047440507,-0.5752685,-0.31510213,-0.24077345,0.055612188,-0.06292761,-0.40782747,0.025025524,-0.4104811,-0.14431655,-1.0968962,0.09750042,-0.32436347,
-0.10209591,-0.75213027,-0.65201813,-0.20914519,-0.0150121795,-0.26353,-0.037049685,-0.16281094,-0.05461261,-0.6359845,-0.3751273,-0.3331314,-0.07197295,0.020941582,-0.16326335,-0.5145071,0.07297454,0.17053205,-0.17555732,-0.41023225,-0.3892455,-0.2844723,0.31600627,-0.25526223,-0.29792568,-0.017339196,-0.0048593166,-0.34418586,-0.01917949,-0.33023667,-0.17179155,-0.33973426,0.014217686,-0.5264723,0.076746546,-0.5004211,-0.8509988,0.11002218,0.039755978,-0.5723997,0.17860575,-0.20740579,-0.44968238,0.10700354,-0.6746117,-0.108057246,-0.9055525,-0.029171545,-0.5172115,0.31703272,-0.031230755,0.21939883,-0.10373063,-0.21513568,-0.41841257,-0.8452004,-0.37590942,-0.13878143,-0.06958446,-0.305598,-0.8110292,-0.03496519,0.041997414,-0.54654104,-0.89884025,-0.15819614,-0.19856048,-0.32988554,-0.8917524,-0.08540997,-0.038114786,-0.4946438,-0.19340636,-0.50013757,0.0704841,0.1074726,0.03266205,-0.05939908,-0.31161928,0.041904006,-0.3192692,-0.45352474,-0.8415752,-0.4151747,-0.15796298,-0.2445369,-0.56676304,-0.13730898,0.47771642,-0.71544486,0.1918323,-0.9620518,-0.034735307,-0.47219077,-0.43448153,-0.32345667,-0.18183637,0.21555048,-0.31790286,0.14978379,-0.27387568,-0.06263505,-0.5895162,-0.0098862285,-0.33482417,0.032517243,-0.33861753,-0.022092992,-0.18831374,-0.07517785,-0.08903698,-0.03707964,-0.1269875,-0.06739185,-0.3293365,-0.109243445,-0.6087774,-0.28540656,-0.3640092,0.06354286,-0.001394016,-0.6351543,0.122377776,-0.5897314,-0.7470157,-0.891086,-0.13842748,-0.09003163,
0.10626152,-0.8131857,-0.75009656,-0.031224584,-0.2239604,-0.30078503,-0.03516086,-0.21696463,0.013594197,-0.7158858,-0.3476346,-0.037665557,0.021836266,-0.15552695,-0.11794892,-0.46470928,-0.031669267,-0.07530508,-0.10890054,-0.46695966,-0.9942962,-0.36115852,0.116084516,-0.17155734,-0.9463214,0.13949251,-0.012377994,-0.18939665,-0.24642214,-0.39411008,-0.16910326,-0.39467752,-0.23301174,-0.259642,0.10549825,-0.5075638,-0.92470163,-0.18223819,0.16191049,-0.6745087,0.11230403,-0.27024016,-0.47021392,-0.13737652,-0.5156608,-0.0847163,-1.2690724,-0.035728276,-0.50893784,-0.03138697,-0.29967248,0.0026167121,0.084288925,-0.04724846,-0.5053541,-0.5334075,-0.13686217,-0.29692677,0.09944129,-0.3509746,-0.7356791,-0.07529916,0.42079625,-0.6080284,-1.2542247,-0.012739031,-0.15130569,-0.32301542,-0.73648024,0.43407354,0.17360896,-0.6529771,-0.02976105,-0.33022472,-0.05410019,-0.02098988,0.1575852,-0.23531781,-1.0123515,-0.12203414,-0.29236573,-0.5012418,-1.2102009,-0.21858524,-0.18529789,-0.1916705,-0.11189202,0.16910456,0.71545297,-0.16418298,-0.23866846,-0.8631818,-0.31023467,-0.65523326,-0.61705595,-0.4212298,-0.27284035,0.04313132,-0.27762303,0.019191934,0.10826705,0.01946951,-0.66423595,0.33960333,-0.55423,0.06991771,0.0031953293,0.022860283,0.0015200921,-0.102661714,0.3156673,0.047718916,-0.09340747,-0.032906186,-0.061843846,-0.059348088,-0.41136715,-0.290798,-0.37232646,0.18770951,0.12943383,-0.40590954,0.15192908,-0.4711936,-0.5871602,-0.4589061,-0.38927972,0.0949906,
0.037003133,-0.92341304,-0.5964499,-0.15181723,-0.47921458,-0.22312987,-0.09714015,-0.24752906,-0.08309929,-0.52517354,-0.44674936,0.22719811,-0.107477345,-0.20471306,-0.19571438,-0.34126735,-0.08284497,-0.016790677,-0.23920803,-0.5367028,-1.2823148,-0.35236514,0.23417188,-0.34502983,-0.7297686,-0.10776949,0.11128545,-0.3537599,-0.15878049,0.0987322,-0.0830865,0.10442715,0.12193244,-0.20489372,0.0033895022,-0.8415893,-0.97520304,-0.316567,0.08591104,-0.6329459,0.048527762,-0.33768162,-0.35992825,-0.25395158,-0.5572399,-0.11956346,-1.3305631,-0.15687759,-0.78867346,-0.13685624,-0.2556931,0.3402539,-0.079242334,0.06650902,-0.27627707,-0.5731355,-0.33012658,-0.22369516,0.26792508,-0.21487555,-0.7825703,-0.102779716,-0.06265331,-0.50100905,-1.2309586,0.16009858,-0.2847886,-0.57320327,-0.49112788,-0.023948247,0.044545967,-0.43462414,-0.04057521,-0.0627956,0.09051234,-0.17526457,0.1951627,0.04490077,-0.85776144,-0.21380398,-0.24753243,-0.45240575,-1.3175452,-0.333113,-0.034749303,-0.17757161,0.0797722,0.109388545,0.6642707,-0.05055172,-0.18187161,-0.96958864,-0.37289813,-0.56251895,-0.43449834,-0.42111334,-0.27055672,-0.26680565,-0.42090842,-0.31089854,-0.01915162,-0.11006388,-0.7624522,-0.12987806,-0.8811047,0.0009197666,0.1152026,0.36834902,0.02174855,0.015697446,-0.07549042,0.029108211,0.030538399,-0.092179306,-0.11359774,0.30535072,-0.34818304,-0.31462774,-0.50757015,-0.1387095,-0.027624367,-0.40282127,-0.25753495,-0.30331898,-0.44480973,-0.14681049,-0.2599031,-0.26032507,
-0.07959151,-0.9372747,-0.9447789,-0.059173465,-0.47443005,-0.3743034,-0.16757742,-0.13985799,-0.020070639,-0.4180055,-0.17165618,0.13628972,-0.03847453,-0.11508842,-0.32520464,-0.3891193,-0.040920407,-0.40280166,-0.24416757,-0.34697056,-0.97295606,-0.25229236,0.2967838,-0.047955636,-0.14721884,-0.28071773,0.31099096,-0.31248307,-0.19408067,-0.04324253,-0.29850212,-0.073415086,0.100068145,-0.27699962,0.15678932,-0.9534604,-0.85706925,0.022611253,-0.03312061,-0.3370848,0.18005589,-0.43231055,-0.06573763,-0.39447308,-0.5134333,-0.155252,-1.0699476,-0.23554486,-0.59037054,-0.25428364,-0.25828326,-0.049188472,-0.07201636,0.24156412,-0.40490168,-0.35541758,-0.48629603,-0.51372457,0.30004174,-0.21415924,-0.7770072,0.13651496,-0.48504528,-0.4993075,-0.679971,0.0048518986,-0.27492863,-0.57176363,-0.5888107,-0.5532655,0.051284865,-0.51642716,-0.36503625,-0.23777232,-0.04611173,-0.049282465,0.16925184,-0.11621665,-0.295656,-0.05555163,-0.19608589,-0.40865886,-1.0103534,-0.7285429,-0.1194093,-0.033549555,-0.09109778,-0.13838933,0.4918196,-0.45620877,-0.20197594,-0.6817431,-0.19330679,-0.44730982,-0.4751779,-0.35265946,-0.2730318,-0.33963838,-0.404282,-0.20294838,-0.3655408,0.026816146,-0.6219904,-0.57292014,-1.0402442,-0.09114671,-0.24282487,0.27534002,0.20013912,0.018930646,-0.031451426,0.07003771,0.123560205,-0.12743717,-0.044947255,-0.015179149,-0.2090636,-0.41183785,-0.32399276,-0.14952303,-0.1368933,-0.06781231,-0.20842355,-0.19102207,-0.47550324,-0.17179902,-0.02190354,-0.09160788,
-0.0014123993,-0.5683326,-0.67463875,-0.020783499,-0.3667341,-0.26234928,-0.21540254,-0.26863414,0.005283317,-0.2234909,-0.34269023,0.01792899,-0.008541661,-0.1498476,-0.31176183,-0.2607679,-0.028879968,-0.35880148,-0.15357156,-0.24108297,-0.48778597,-0.20205587,0.32441097,0.0661593,0.19874538,0.03929954,0.41264948,-0.24071361,0.04928394,-0.103867285,-1.0762502,0.029036947,-0.12128006,-0.56241244,0.020779798,-0.615287,-0.90808594,-0.103413224,0.20316817,-0.23586364,0.12750193,-0.50925505,-0.013097763,-0.70382696,-0.57992715,-0.007280879,-0.90177107,-0.023243835,-0.81647116,-0.058882043,-0.32096264,0.00080392696,-0.024438802,0.020187762,-0.3154524,-0.69859254,-0.38569295,-0.4628966,0.10493346,-0.04437408,-0.9518687,-0.08653324,-0.17755765,-0.4745001,-0.4464327,-0.4338751,-0.34338206,-0.41356564,-0.43780944,-0.42794436,0.14346823,-0.34923786,-0.40115988,-0.073323935,-0.15508918,0.10466788,0.12459195,-0.32345805,0.15228972,-0.12396965,-0.21391098,-0.42293876,-1.2380446,-0.49516433,-0.17018822,-0.13393478,0.006873018,-0.28080353,0.29004708,-0.7997059,-0.2430931,-0.7579149,-0.02721523,-0.39649248,-0.3871568,-0.15325515,-0.06837892,-0.29437178,-0.5506565,-0.3522443,-0.47994402,0.105070814,-0.36117625,-0.88005304,-0.8624089,-0.099321455,-0.22518569,0.180195,0.17621966,0.33976325,0.07906514,-0.009672572,0.26107582,-0.33896554,-0.18482687,0.226542,-0.3158378,-0.4825466,-0.31262773,0.10520164,0.049422026,-0.18988816,-0.004527919,-0.13565959,-0.418246,-0.24015497,-0.29783618,-0.0060228067,
0.19140965,-0.47950944,-0.58227235,-0.04940595,-0.09789269,-0.36157253,-0.1001528,-0.4065178,0.04286383,-0.22705069,-0.41851437,-0.21808408,-0.11686242,-0.13605827,-0.47491017,-0.27808478,-0.26822183,-0.39632136,-0.0044405633,-0.006936674,-0.6008678,-0.1752869,0.18171813,-0.06124375,0.102127016,0.14446352,0.23144397,-0.5250961,0.15548147,-0.23822278,-0.82524866,0.0641019,-0.31029898,-0.8469654,-0.14818168,-0.39142734,-0.73183066,-0.083417565,0.30051696,-0.6328538,0.2198279,-0.3773684,-0.13707389,-0.8788753,-0.4604713,0.16767578,-0.8233607,0.22027937,-0.6641847,-0.049961586,-0.08478243,-0.1166494,0.14197546,-0.2696411,-0.39230093,-0.9009417,-0.30162507,-0.0638322,-0.13214993,0.047141094,-0.8978406,-0.32042658,-0.21706234,-0.6665688,-0.7049318,-0.47883478,-0.5410144,-0.0990791,-0.6303695,-0.52692384,0.024401693,-0.16945936,-0.036083505,-0.09935266,-0.25957966,0.052959632,-0.03294422,-0.52804124,0.1312927,-0.05712165,-0.13021111,-0.6405223,-1.410549,-0.14678985,-0.13909926,-0.121443205,-0.03034234,0.023228696,0.22134568,-0.36930144,-0.19879162,-0.8980592,-0.14104746,-0.43418986,-0.59055907,-0.11171898,-0.2776683,-0.13034126,-0.5228267,-0.030244583,-0.38660336,-0.043943733,-0.46606368,-0.65196466,-0.7719702,-0.10189229,-0.05677582,0.0792325,-0.018392311,0.44625401,0.34956735,-0.011069073,0.15901977,-0.30069152,0.11227275,0.088241234,-0.09601479,-0.5804584,-0.31806123,0.2975073,-0.08943944,-0.21989866,-0.17924187,-0.18528394,-0.08675346,0.028054379,-0.2666978,-0.11986601,
0.2990219,-0.2454157,-0.57158244,-0.11537747,-0.10961542,-0.23954572,0.025725102,-0.40972784,0.031446062,-0.24459827,-0.41937456,-0.13854466,0.008852047,-0.18967552,-0.36948118,-0.2535732,-0.28855166,-0.39769983,0.03500191,-0.056478307,-1.1095611,-0.22039053,0.33427614,-0.16363965,-0.006594845,0.20948035,0.3179199,-0.55552524,-0.066648066,-0.19661443,-0.10575319,0.004151583,-0.093783334,-0.80798066,-0.17866473,-0.2125132,-0.8057383,-0.13450433,0.27070832,-0.47077593,-0.12991987,-0.16629213,-0.19588563,-0.8834593,-0.39302388,0.1434853,-0.95275825,0.17052129,-0.7354523,-0.17255774,-0.08880046,-0.0515496,0.19533391,0.041796632,-0.27223906,-0.78645617,-0.31851462,-0.05626281,-0.08653843,0.18663782,-0.7293261,-0.35698387,0.02500447,-0.6229617,-0.7896325,-0.30546385,-0.640527,-0.07782996,-0.67777646,-0.41555047,0.15824248,0.03961453,0.15689889,-0.052463286,-0.30975863,0.08385274,-0.018432587,-0.46601805,0.20423825,0.048599087,0.014778701,-0.6870665,-1.1168858,-0.15872876,-0.06568856,0.22699,-0.11803449,0.14228633,0.19800897,-0.26410612,-0.26965445,-0.8013191,-0.20927475,-0.15767914,-0.3811912,-0.070818976,-0.27063757,0.16690187,-0.59574246,0.025259545,-0.5143653,-0.16417824,-0.32999843,-0.48714203,-0.37351087,0.08676651,-0.09387811,-0.053411007,-0.022671983,0.3179427,0.2585035,0.04544445,-0.072681494,-0.008231054,0.31566375,-0.186733,-0.18408307,-0.33967364,-0.13036555,0.17199802,0.08821484,-0.27689713,-0.33150217,-0.4287235,-0.07141535,0.37151086,-0.13288309,-0.06945183,
0.47407255,-0.05627984,-0.45751423,-0.0042794393,-0.36650234,-0.22328982,-0.26769793,-0.45187482,-0.06646422,-0.32043272,-0.42592183,-0.105337106,-0.17161894,-0.10050847,-0.37505937,-0.24570668,-0.24171782,0.15675204,-0.26091427,-0.38788834,-1.048576,-0.18575843,0.34849787,-0.3271112,-0.17666464,-0.14024097,0.43438053,-0.4009496,-0.28120622,-0.43058372,0.2245668,-0.23009302,-0.0027938227,-0.50015426,-0.05595102,-0.067190394,-0.90033025,-0.1941658,0.103524715,-0.46924698,-0.1784656,-0.05579072,-0.37024453,-0.7789997,-0.42827234,-0.46281686,-0.7728306,0.07564713,-0.87572294,0.045722365,-0.3586501,0.3127025,0.0016555608,0.20013304,-0.33265498,-0.8172459,-0.40051356,0.45250198,0.21850288,0.12030707,-0.5465315,-0.3866981,0.00011206421,-0.30551103,-0.765503,-0.18601514,-0.47677162,-0.15237613,-0.6598659,-0.41832316,0.027496744,-0.30674368,-0.25500622,-0.036458008,-0.24690706,0.098468624,0.08931398,-0.35114378,0.05991762,0.13598284,-0.044298578,-0.5141746,-0.6776387,-0.25626037,-0.022346377,0.20378835,-0.018643409,0.22298141,0.1116917,-0.15068382,0.1542651,-0.6746852,-0.28566772,-0.12952295,-0.24379057,-0.2120633,-0.24403952,-0.033250336,-0.43141645,-0.19886932,-0.48423585,0.00151387,-0.27264678,-0.5771282,-0.34481344,-0.04262737,-0.25364095,-0.03536018,-0.10034762,-0.11626903,-0.08995907,-0.034012754,-0.060103565,-0.14522037,-0.035411596,-0.3902005,-0.052948955,-0.40206817,-0.20940423,0.089986056,-0.032697406,-0.2328339,-0.1253755,-0.6475531,-0.128527,0.1305769,-0.15025169,0.06633853,
0.3098337,0.054440074,-0.6024655,-0.08757003,-0.19452968,-0.17014527,-0.1547245,-0.5003044,-0.027799549,-0.37327388,-0.29762504,-0.023284553,-0.0078104804,0.04273727,-0.45283318,-0.27501902,-0.17065907,0.3605118,-0.48878074,-0.49327332,-1.1718671,-0.20355392,0.27804598,-0.22763506,0.059001263,-0.12511969,0.36766967,-0.2979848,-0.38207063,-0.36072534,0.08710503,-0.3316754,0.17507501,-0.32572025,-0.0965749,-0.09929239,-0.71214575,-0.425704,0.17266594,-0.37829208,-0.1880615,-0.085610315,-0.41718712,-0.3843441,-0.1505856,-0.25507534,-0.42243627,-0.014483352,-0.6453564,0.18620484,-0.13797407,0.40404356,0.021056326,-0.017753279,-0.15356486,-0.5079922,-0.37998864,0.38293695,0.20637403,0.13309883,-0.5632884,-0.28446245,-0.101058215,-0.3335632,-0.20795745,-0.2401697,-0.23667587,-0.28168517,-0.553607,-0.36144096,0.1336156,-0.14638533,-0.34347445,-0.0663768,-0.18083046,-0.09670623,0.027682511,0.039770585,0.2629165,-0.15097229,0.04882645,-0.21619466,-0.7340228,-0.39966705,-0.14756195,0.3295084,0.035965454,0.35231006,0.010526576,0.17093568,0.51978236,-0.50283766,-0.32885915,0.0016338784,-0.3023142,-0.20893736,-0.17513779,-0.09688238,-0.36482683,-0.14347616,-0.16581663,0.13121077,-0.17909735,-0.42527115,-0.32389274,-0.08540674,-0.26671654,0.1110215,-0.086118765,-0.403543,-0.2795634,0.07100579,0.2599215,-0.04811016,-0.26323998,-0.37353796,-0.090829976,-0.20460264,-0.173057,0.07655113,0.01932556,-0.28468677,-0.18037483,-0.20870574,-0.13308895,0.027721308,-0.37019652,0.053007223,
0.3708122,0.27959788,-0.30784476,0.06041009,-0.30735254,-0.26246265,0.19428767,-0.14288408,0.030622948,-0.4568428,-0.1133675,0.0799123,0.30532032,-0.07348158,-0.37448153,-0.31547675,0.0035188398,0.35147917,-0.048882935,-0.1955578,-0.8214944,-0.05065635,-0.05596036,0.08340198,0.2679441,-0.10996551,0.567201,-0.2307269,-0.5753525,-0.24489605,-0.0006227288,-0.21086137,0.25408393,-0.5543289,0.04970401,-0.09783366,0.019994589,-0.39052343,0.085101895,-0.28807387,-0.06372536,-0.041321672,-0.3619049,-0.13204013,-0.089357994,-0.17945312,-0.35881194,0.14525284,-0.63802063,0.08125713,0.042190984,0.28459635,0.0010304457,0.056962006,-0.18731806,-0.39119488,-0.18808134,0.29536867,0.089011155,0.20722115,-0.5032316,0.14752035,-0.14161532,-0.36149246,-0.11596518,-0.15657258,-0.20200875,-0.5324525,-0.197143,-0.22475329,0.1195736,0.02349281,-0.3094077,-0.12038876,-0.24861407,0.2555232,0.05756898,0.17907362,-0.24340113,-0.28817505,-0.047516648,0.091063954,-0.6880445,-0.4245188,-0.06579855,0.32325152,-0.13854271,0.33108056,0.14738178,0.15276308,0.19199668,-0.56357414,-0.09861663,-0.071903095,-0.02229243,-0.12733215,-0.16258948,-0.3357218,-0.12147143,-0.07936004,-0.00047606244,0.23397551,-0.17514318,-0.06684095,-0.115434825,0.049026977,0.09262131,-0.0668919,0.10646299,-0.17638707,-0.30454338,0.040727656,0.30472377,-0.09120403,-0.25364265,-0.10069635,-0.0059891543,-0.26400524,-0.044829916,0.14333417,-0.029103829,-0.115543745,-0.07482139,-0.26226914,-0.045763396,-0.006853008,-0.5431016,0.08112019,
0.20039524,0.5108378,-0.010285428,0.06711462,-0.36105287,-0.18812746,0.22078276,-0.098976314,-0.07103803,-0.21279061,-0.22514968,0.053561877,0.06721354,-0.1486832,-0.04611935,-0.273822,-0.15099518,0.0019716565,-0.18379197,-0.27923134,-0.026314925,-0.3690578,-0.36945498,0.19254288,0.077432394,-0.099669114,0.44620997,-0.23566021,-0.31262943,-0.3390422,0.00018039788,-0.18323229,-0.2422946,-0.21249396,0.18458056,-0.14037915,-0.016894905,-0.18862006,0.09525381,-0.038731053,-0.003970999,-0.06918065,-0.10077448,0.1339598,-0.16417955,-0.20921664,-0.21674246,0.12808144,-0.46723345,-0.26601538,-0.23776639,0.40685174,-0.25266367,0.21954879,0.030126393,-0.1935394,-0.008458083,0.6909554,0.057198398,0.095964715,-0.2890625,0.16113512,-0.007530583,-0.29907882,-0.069617264,-0.31056708,-0.19939774,-0.53199106,-0.083051875,-0.28982806,0.13687325,-0.22441275,-0.3214342,-0.05023861,-0.15846315,0.3044436,0.143808,0.16572766,-0.5367846,0.14545129,-0.1480582,-0.08307728,-0.33784044,-0.30199885,-0.20507072,0.019930745,-0.35064852,0.13469958,0.21224818,0.1400507,0.21241999,-0.5607525,-0.06526844,-0.08883985,0.0045342078,-0.3019904,-0.25091654,-0.055792607,-0.014407929,-0.09390942,-0.18494432,0.15191944,-0.17645417,-0.032785498,-0.07870664,0.28077772,0.08330251,-0.0733304,0.2782432,-0.21836066,-0.3054669,-0.029685644,0.07371208,0.02936795,-0.3664341,-0.06514464,0.024198228,-0.1553449,0.02255968,0.14280298,-0.13956095,-0.057740122,-0.12177183,-0.15118082,0.027032744,0.038968373,-0.45231447,0.317304,
0.22112657,0.4432659,-0.12850252,0.09407046,-0.16190492,-0.26615536,0.055794805,-0.17818786,-0.0078058727,-0.06967508,-0.083569996,-0.10637314,-0.14016412,0.16975696,-0.0364821,-0.074750565,-0.19997197,0.0864788,-0.21188745,-0.060857635,0.09002627,-0.17083189,-0.38100803,-0.05389404,0.0012987972,0.291655,-0.039280552,-0.15288995,-0.24465498,-0.6156081,0.15072258,-0.16079533,-0.20888917,-0.4107636,0.07489098,-0.18764938,-0.19654492,-0.08497161,0.0009651998,-0.03225113,-0.07892033,-0.23763749,-0.14305055,0.28949082,-0.08831357,-0.034507185,-0.27838725,0.27281493,-0.15600307,-0.14232355,-0.15506789,0.41376278,-0.8216755,-0.3977271,-0.06441281,-0.03937743,0.25177374,0.5072158,0.5018286,0.06978845,-0.33425185,0.08423798,0.048942555,-0.24191102,-0.1657987,-0.23280533,-0.19431607,-0.31578985,-0.19786848,-0.13452159,-0.014932711,-0.28029382,-0.24653083,-0.146362,0.0075875134,0.150418,0.15654877,0.13322712,-0.36461246,-0.19124748,-0.082016066,-0.19691204,-0.31599244,-0.17944212,-0.31649414,0.061528336,-0.28890336,0.0014971788,0.065082915,0.005617505,-0.072177984,-0.46365288,-0.045623355,0.0027173923,-0.12712696,-0.55804396,-0.21934368,0.013495081,0.06265376,-0.058514282,-0.10959154,0.18458039,-0.1081339,-0.22295243,-0.0172366,0.031025853,-0.111715324,-0.10102144,0.3207036,-0.04078919,-0.11439146,-0.08566142,-0.029052215,0.022761254,-0.6034627,-0.071870156,0.0008673732,-0.15066393,0.046736784,0.22514927,-0.13497667,-0.016416736,-0.27955684,-0.24769366,-0.027297746,0.17211044,-0.24101241,0.3884056,
0.22533093,0.18638057,-0.11662939,0.030886918,-0.0749882,-0.109845914,-0.3619028,-0.058723897,-0.028213847,-0.16704246,0.01748899,0.28426325,-0.40246883,0.6757389,-0.01919554,-0.031054456,-0.51475316,0.03441049,-0.33388305,-0.13181901,-0.020700531,0.22471671,-0.032321855,-0.29144803,0.053722043,0.2897384,0.0114477575,-0.08853811,-0.13073796,-0.48962098,0.52225393,-0.031608794,0.14891112,-0.096214004,-0.21358189,-0.2628407,-0.2430649,-0.1744981,0.11998195,-0.07251043,0.029504623,-0.4012027,-0.05489564,0.20268089,0.01188488,0.044344805,-0.24802548,0.29799888,-0.13241418,-0.3247811,-0.14483412,0.16672687,-0.956347,-0.4602602,-0.09781638,0.007801826,0.10856121,0.030474754,0.8664233,0.17712247,-0.28262737,-0.040989917,-0.04203173,-0.20122634,-0.1195013,-0.17919932,-0.0384048,0.12194996,-0.043333832,-0.20624693,0.12572463,-0.1382489,-0.07688653,-0.17599949,-0.010551777,-0.26732427,0.21603718,0.28641948,-0.38092443,-0.43445304,-0.14232682,-0.005185764,-0.22209159,-0.0056614187,-0.6247778,-0.09911859,-0.32023266,-0.21356441,-0.3506086,0.043423086,-0.10460474,-0.5128214,0.03591509,-0.12238293,-0.04482245,-0.30931425,-0.16280785,-0.013149094,-0.04513518,-0.17136912,0.034684017,-0.08360594,-0.10892144,-0.13970359,-0.16310371,-0.053680502,-0.0470067,-0.0548163,0.34318906,-0.097107865,-0.26183975,-0.0010521052,0.16239738,0.09234875,-0.70829076,0.03148682,-0.108377405,-0.12679398,0.021386864,0.2666751,0.18429093,0.013926479,-0.45034903,-0.33906472,-0.109136626,0.081545584,-0.008741082,0.58726627,
-0.16400047,-0.19410782,-0.06563341,-0.038122386,0.2505004,-0.013139359,0.5403477,-0.017131455,-0.022371914,-0.015549341,0.074299335,-0.057950992,0.65985394,0.014374323,-0.07801284,-0.07387978,0.45385945,0.2280751,0.6808437,0.13117056,-0.3723673,0.09906186,-0.09866931,-0.08599336,-0.110042386,-0.005436638,0.08281973,-0.10227484,-0.055221975,-0.17732428,-0.37201113,-0.051560137,-0.031158103,0.0009810791,0.4870029,0.080290265,0.046506427,0.30870053,-0.13090524,0.008740683,0.2917968,0.26740652,-0.073723674,-0.15954067,0.18496478,-0.088496864,-0.009939562,0.12758453,0.00932111,-0.080545895,0.1210968,-0.00374969,0.45240486,0.37570825,0.061656497,0.5719036,-0.03381605,-0.21899207,-0.21788563,-0.1069154,-0.13449045,-0.090531155,-0.12497023,-0.1394564,-0.25065738,-0.007951104,-0.02295413,0.0036196616,-0.053565018,0.0882053,0.4612653,0.13102861,0.089809634,-0.025606189,-0.083168656,0.5910821,-0.03745764,0.06024726,0.05523102,0.041985158,-0.0035088893,-0.10593819,-0.20028368,0.005659793,0.26075357,0.2762002,0.01217307,-0.30463105,0.0056779534,0.50447124,-0.17456758,0.20626494,0.29332998,0.0036895361,-0.08667879,0.050652485,0.051588602,0.32002684,0.02716513,-0.23959045,0.5956494,0.6521991,0.106613085,-0.2758293,0.024611795,0.064079605,1.0195857,-0.055743374,-0.13275322,-0.10104735,-0.07456957,-0.0059377477,-0.26462132,-0.06609131,0.4871528,-0.007713539,-0.052968055,-0.02995935,-0.08349953,-0.31786668,0.4385702,-0.04501161,-0.28564012,0.46587604,0.25164545,-0.46145746,-0.123302735,0.022146355,
-0.20644946,-0.2265545,-0.07292133,-0.15522924,0.1257241,-0.0045595663,-0.18252033,0.027609602,-0.024510108,-0.008790511,-0.04686863,0.1686238,0.042856906,0.0034759804,0.025901092,0.010638023,0.5068278,0.26153553,0.23602386,0.034817666,-0.4310513,-0.34895563,-0.043970905,0.15612532,-0.071762435,-0.15921581,-0.28114292,-0.19509256,-0.14563051,-0.27316615,-0.3616455,-0.10638494,0.22449976,0.05620255,-0.16867258,0.48233938,0.10478146,0.20833586,-0.20888369,0.0069632838,0.09857349,0.07804077,-0.10765102,-0.3016465,0.11219922,0.0051431423,0.039466143,0.22406314,-0.12110322,-0.06306722,-0.5008798,-0.042682562,0.14241187,0.2969809,0.019332014,0.33934218,-0.28737798,-0.2870804,-0.08836549,-0.016267912,-0.1828482,-0.091390975,-0.20349856,-0.18587345,-0.28577837,0.18838376,0.006951806,-0.11512491,-0.072577484,0.059057914,0.04528327,0.06631677,0.01349581,-0.18095385,-0.11081449,0.048506957,-0.013693496,0.14274429,-0.07488436,0.07639949,-0.11693759,-0.10680242,-0.35098654,0.09971588,0.24626802,0.28677228,0.09888726,0.19224153,-0.2931498,0.112318516,-0.1796058,-0.021180758,0.04685435,0.04677452,-0.019690577,0.029452657,-0.09116386,0.2815106,-0.06812362,0.15932839,0.48154196,0.79543865,0.104857504,-0.3543384,-0.08512921,0.09260182,0.7015673,-0.10157673,-0.034670237,-0.08311673,-0.011717989,-0.059652224,-0.34634614,-0.13657333,0.336826,-0.019105537,-0.21912107,0.051958803,-0.041795406,-0.39708003,0.2521134,-0.024758507,-0.11030901,0.6947341,0.22727233,-0.522178,0.02126031,0.017729934,
-0.2442356,-0.44230923,-0.3101728,-0.1460682,0.17620519,0.054702587,-0.13761263,-0.050958257,0.041538242,-0.019224098,-0.16643614,0.061352126,0.2631094,-0.051575597,-0.1254351,-0.34627125,0.20693327,0.14067209,0.121690944,0.24304248,-0.48336947,-0.3573339,-0.079834364,-0.042813156,-0.2694396,-0.23104432,-0.43182173,-0.24909541,0.038188815,-0.5589668,-0.41460118,0.0316829,0.17712756,0.09394812,-0.07583602,0.3719029,0.08504165,-0.1452532,0.15249915,-0.07924881,-0.008776679,0.09885447,-0.075604215,-0.1538958,0.0835109,0.09110101,-0.1657775,0.2189777,-0.23126835,0.023152288,-0.40334013,-0.035485893,-0.14610589,0.15024054,0.009349696,0.32984152,-0.34386468,-0.35176757,-0.3056629,0.1870987,-0.33577764,0.024831317,-0.4760167,-0.31249228,-0.23781624,0.27312392,-0.089637496,0.015271171,-0.14811097,0.19065905,0.07131863,0.09330141,0.04476096,0.12845428,0.0014147493,-0.008753511,0.03675571,-0.013225338,-0.2398217,0.005915651,-0.104804605,-0.22422962,-0.4408349,-0.2372404,0.02184861,-0.021539176,-0.19783019,0.29758993,-0.12636214,-0.30091867,-0.13069715,-0.33303952,-0.18818736,-0.002101734,-0.11660412,0.12627278,-0.22752729,0.31624064,-0.05327759,-0.049030963,0.18621927,0.7230574,0.002174513,-0.3216941,-0.08763107,0.060360115,0.21493398,-0.25512362,-0.005446757,0.18408656,-0.2102936,0.008588132,-0.27864343,-0.008265767,0.18521057,-0.13542816,-0.2269974,0.068899274,-0.04620682,-0.5067626,0.11481643,-0.17035396,0.042467557,0.4147162,0.31738856,-0.36027378,0.22329403,-0.08685369,
-0.2962208,-0.0826503,-0.69455785,-0.11041443,-0.10616708,-0.07975664,-0.058658354,-0.3232134,-0.005356019,-0.058610614,-0.16228408,0.26158744,0.26293713,-0.266882,-0.34873855,0.06303124,-0.39115962,0.245559,-0.04028649,-0.1985106,-0.7219954,-0.28677842,-0.07022779,0.19754308,-0.8023507,-0.34416115,-0.5003,-0.27808532,-0.14494072,-0.5653885,-0.4869091,-0.015473183,0.22241467,-0.018518275,0.27850828,0.27539238,-0.24826835,-0.15643369,0.24249445,0.21197575,-0.028634416,0.19480787,-0.2222,0.015890665,0.10439185,-0.021030791,-0.42805177,0.31327805,0.028412912,-0.083970174,-0.16397527,-0.16776033,-0.39314765,0.071101084,-0.21605945,0.19824159,0.14345779,-0.5141053,-0.3107567,-0.042449553,-0.5755099,0.04886438,-0.24064445,-0.18236303,-0.44603023,0.2575609,-0.086657524,-0.11978875,-0.39141285,0.055846993,0.0025443055,0.14680414,-0.06353996,-0.19348335,-0.029276885,0.2389059,-0.26137078,0.07147314,-0.37292546,0.042379323,-0.27610916,-0.47845733,-0.9461689,-0.24581555,-0.10814173,-0.09399481,-0.15278389,0.059290595,-0.23867063,-0.68397856,-0.08348,-0.5650573,-0.43207282,-0.08016951,-0.0087498315,0.12898198,-0.18275523,-0.014182028,-0.057486318,-0.30802578,-0.16315803,0.23936653,-0.4953466,-0.39388752,-0.26341978,0.18019429,-0.12243697,-0.15090348,-0.3080813,0.08011976,-0.40784112,0.06515542,0.13652548,-0.011466977,-0.072611086,-0.011473596,-0.2530725,-0.15506007,-0.41889563,-0.14782043,-0.027953686,-0.049740616,-0.0530148,0.013579834,0.175928,0.06865664,0.053039692,-0.04691298,
-0.38144857,0.41959527,-0.8102375,-0.06327299,-0.18715854,-0.031615805,-0.14140294,-0.38854343,0.027809713,-0.069059215,-0.047665045,0.040209796,0.23661166,-0.25536892,-0.1522687,-0.018713344,-0.31415135,0.30268398,0.3055038,-0.15292911,-0.6144328,0.029273529,-0.08735536,-0.29074848,-0.66557753,-0.34466496,-0.35313603,-0.21510842,-0.095211595,-0.35674846,-0.41400915,-0.32247743,0.38295516,-0.23958246,0.52170086,0.60336655,-0.078324564,-0.11693802,0.24474414,-0.011742814,0.08376177,-0.011259371,-0.15470788,-0.22071816,0.06268924,0.12361058,-0.3582484,0.0341838,-0.009359965,0.13098222,-0.09069547,0.013853052,-0.10985923,-0.055365104,-0.18675786,0.116919614,0.3185579,-0.2408173,-0.023219159,0.027235154,-0.7196985,-0.053570826,-0.24572244,-0.21753605,-0.6978831,0.10693964,0.008646381,-0.0480723,-0.42680186,-0.32885456,-0.05064288,-0.0917723,0.11584044,-0.32458168,-0.030742351,0.41702983,-0.48497453,-0.17932183,-0.45486847,0.09099155,-0.17692445,-0.8187929,-1.0983902,-0.09040044,0.088940084,-0.072868526,-0.2015473,-0.1844166,-0.29361063,-0.6351971,-0.08929229,-0.58109164,-0.49986187,-0.035468034,-0.14940324,0.1695397,-0.07309992,-0.2455248,0.34116933,-0.075548336,-0.14508784,-0.06976589,-0.79958606,-0.28953668,-0.37930244,0.15130126,0.08216384,0.28824311,-0.24989067,0.035942163,-0.30711937,0.044140723,0.11688617,-0.005575498,-0.34795135,-0.21699809,-0.2720555,-0.17273623,-0.36557344,-0.36901847,-0.19545731,0.018550554,-0.027538296,-0.17518699,0.43083978,0.2916179,-0.09919899,-0.08092084,
-0.6455976,0.42755276,-0.7015028,-0.1145632,-0.2733004,-0.1594237,-0.17089823,-0.30153328,-0.05735627,-0.1344603,0.13142884,0.07850796,0.40335393,-0.23852098,-0.17823713,-0.20524454,-0.025030524,0.07797566,0.5765564,0.033662118,-1.0503637,0.05693298,-0.10545098,-0.30843973,-0.67297363,-0.3887439,-0.060467582,0.03143413,-0.2223552,-0.107729204,-0.5462947,-0.5733831,0.26501837,-0.42173183,0.3097755,0.46511742,-0.24647559,-0.14022407,0.27040663,-0.049584117,-0.040758014,-0.20597531,-0.25367796,-0.6401376,0.24820115,-0.09463253,-0.44271183,0.05800142,-0.32281512,0.053665195,0.09449494,-0.22876936,0.036976587,-0.08808367,-0.2578889,0.27816918,0.024017427,0.0040549333,0.024857571,-0.15410839,-0.8138468,0.022778945,-0.13496758,-0.27519852,-0.89186734,0.0064760824,-0.12879446,-0.34920105,-0.4098085,-0.24374798,0.052032836,-0.20045437,-0.13230409,-0.10965992,-0.16903165,0.54227304,-0.30436608,-0.30762115,-0.32632038,-0.24785796,-0.31357327,-0.68370914,-0.9515243,-0.21921505,0.15274274,-0.21295173,-0.10922567,0.025606494,-0.08501319,-0.26141042,-0.18104947,-0.7275081,-0.24424246,-0.080252066,-0.54347026,0.024400441,-0.12856576,-0.20243962,-0.3049087,0.0022066708,-0.063015416,-0.015908757,-1.0850451,-0.64591426,-0.4420118,0.16364114,0.810416,0.2075692,-0.38491645,-0.26010212,-0.16728161,0.041009046,-0.35206133,-0.18285109,-0.6107374,-0.29102153,-0.117286325,-0.26234046,-0.6527299,-0.25314787,0.09455873,0.10066323,-0.071406454,0.013469067,0.06679667,0.15431865,-0.18306984,-0.12467784,
-0.381785,0.3749053,-0.908002,0.16672811,-0.10458247,-0.23133227,-0.023797058,-0.3838512,-0.059629157,-0.22863902,0.05083087,0.29007986,0.30931512,-0.1702746,-0.04604839,-0.12812437,0.07286048,0.11914898,0.38813046,-0.24876031,-1.8496523,-0.22398739,-0.047155984,-0.13999891,-0.22130272,-0.2182125,-0.18731838,0.008261146,-0.23587015,-0.08389444,-0.22995864,-0.49237612,0.15029481,-0.28122798,0.2528145,0.12812999,-0.56422615,-0.21682623,0.3243797,-0.10395135,-0.05483901,-0.16587989,-0.6481781,-0.63603044,0.10826783,-0.111333765,-0.5165397,-0.09593824,-0.23539227,0.22648272,-0.08757668,-0.29592407,0.1421977,-0.31841716,-0.35719875,0.20139426,-0.16837676,0.012754105,-0.22420895,-0.010578158,-0.7904828,-0.101218715,-0.22328542,-0.27322832,-1.0837154,-0.043141607,-0.14104395,-0.5892639,-0.41747946,-0.22091037,0.15301208,0.07187563,-0.19442509,-0.41566396,-0.2556649,0.29085445,0.08802008,-0.32140538,-0.14175394,-0.15391769,-0.30089673,-0.88087744,-1.020208,-0.23889889,0.032760046,-0.29533982,-0.00032604704,0.14398792,-0.28863078,-0.32338595,-0.16791582,-0.67543995,-0.10666092,-0.016028559,-0.6574707,0.074485354,-0.06593778,-0.027400851,-0.60744715,0.15593079,-0.19348052,-0.008704996,-1.2304585,-0.50719154,-0.7196733,0.10342647,0.16232522,-0.040881936,-0.28427327,-0.17085835,-0.11288212,-0.06883312,-0.21216173,-0.16496386,-0.7384368,-0.19293559,-0.12751584,-0.19522047,-0.64074504,-0.14465033,0.21639025,0.024222266,-0.083356075,0.041680876,-0.014127285,0.30437636,-0.051938158,-0.15145482,
-0.17753121,0.2022133,-1.0298889,0.21829958,-0.014399682,-0.25630513,-0.1398309,-0.3325606,-0.0057327524,-0.22325045,-0.06174663,0.11340968,0.08664851,0.05812721,-0.016455125,0.07339511,0.2528356,0.09308912,0.48175645,-0.5214777,-1.7263489,-0.28799528,-0.16688655,-0.3073188,0.2448577,0.0067120073,-0.06137673,0.016138822,-0.46620932,-0.12283279,-0.3937663,-0.5443019,0.033027403,-0.139119,0.26849353,-0.24606316,-0.6223354,0.0719478,0.10432744,0.18265088,-0.14369519,-0.0810185,-0.83447486,-0.3365587,-0.08640158,0.19145958,-0.68697757,-0.26141238,-0.18913043,0.07504521,-0.19049868,-0.16479926,0.46761972,0.1553261,-0.33824596,0.1343469,-0.07288623,0.24016017,-0.11640077,-0.09895983,-0.82801574,-0.11615675,-0.10090012,-0.35227942,-0.9481394,0.17124243,-0.21650496,-0.82368445,-0.76358324,-0.1469438,-0.022106552,-0.24569277,-0.05465165,-0.72078645,-0.25892556,0.24639745,-0.016909257,-0.47350913,-0.03182264,0.014625543,-0.34707588,-0.7487017,-1.0928538,0.008324812,-0.1851425,0.19303444,-0.26004672,0.096542254,-0.72186494,-0.26895994,-0.4211822,-0.8057106,-0.12831609,-0.08998205,-0.52721876,-0.02041237,-0.06827105,0.2319189,-0.5367892,0.019396398,-0.44091317,0.05328716,-1.1900313,-0.31775832,-0.617931,-0.032511022,-0.13473839,-0.25261188,-0.22848149,-0.51787734,-0.13640897,0.011472562,-0.15313664,-0.22266193,-0.72990936,-0.4845524,-0.16572534,-0.18852846,-0.5965421,-0.0717906,0.033318065,0.10493665,0.073918216,0.06666613,-0.21940346,0.3529669,0.24572167,-0.20974998,
-0.04128836,0.1335289,-1.207173,0.2528379,-0.1167389,-0.23536623,-0.19980393,-0.46072683,-0.017813455,-0.4643009,-0.039524384,0.20527162,0.13774082,-0.31278387,-0.26231703,0.0027307484,-0.10358341,-0.049519073,0.78157663,-0.5620355,-1.5673875,-0.3685673,-0.21226022,-0.1303848,0.06281644,0.37857527,0.04627658,0.024213238,-0.282994,-0.2354122,-0.67710173,-0.51365805,-0.12502363,0.014897926,0.32923278,-0.19610761,-0.865015,0.036110435,0.2632614,-0.26540452,-0.2643052,-0.12414373,-0.8181386,0.15545353,-0.2107376,0.06318021,-0.97302437,0.0434884,-0.45190233,0.124340214,-0.15491402,-0.24140136,0.5030835,0.34684956,-0.16237934,0.055739254,-0.0987671,0.11722963,-0.046163935,-0.25808272,-0.97785574,-0.21122453,-0.16436459,-0.29353553,-0.8079323,0.13595398,-0.16505654,-0.7370876,-0.65904564,-0.09345215,0.17750971,-0.42183045,-0.0968434,-0.6742635,-0.58720315,0.48445442,-0.2272002,-0.45871502,-0.0035293272,0.013862968,-0.5462339,-0.7469794,-0.89173234,-0.15450719,-0.26709852,0.24675994,-0.8954173,0.22589782,-0.81629527,-0.23433545,-0.6389729,-0.9720424,-0.06652979,-0.23732945,-0.49104628,-0.19726154,-0.102670036,-0.0494126,-0.66579443,0.03224885,-0.52846766,0.233932,-1.0779172,-0.3914017,-0.76872385,0.061589077,-0.12951562,-0.5127176,-0.342181,-0.8333491,-0.08209318,-0.0022764318,-0.36238486,-0.24621834,-0.58405197,-0.6817876,0.12952146,-0.21199985,-0.64344656,-0.07909188,-0.033696406,0.13060983,-0.099658266,0.08823412,-0.07250839,0.0060663573,-0.21873061,-0.36881104,
0.025816109,-0.15577391,-1.1964906,0.30956736,-0.09307768,-0.20707506,-0.097666144,-0.41872025,0.040326394,-0.5382649,-0.43675482,0.31103206,0.2523845,-0.55238134,-0.35755193,-0.29805648,-0.21681024,-0.1341687,0.5690808,-0.7114205,-1.3792752,-0.22812141,-0.26569858,0.020938562,-0.2477766,0.2007837,0.032669514,0.07611853,-0.4712439,-0.29257992,-0.96841687,-0.030147487,0.12160427,-0.21035548,0.23019807,-0.21972989,-0.4392718,0.026640087,0.14155394,-0.73518777,-0.34066185,0.057696577,-0.8138047,-0.08155568,-0.13564886,-0.7557772,-1.1478094,0.0054962975,-0.447962,-0.04860106,-0.07131088,-0.23181078,0.18176846,0.38528645,-0.15188769,-0.29713777,-0.16360117,0.124752246,0.08996914,-0.11797735,-1.0055898,-0.28330785,-0.3195531,-0.44787076,-0.9136561,-0.025302652,-0.14536299,-0.8620329,-0.84571767,-0.11288744,0.2320974,-0.40259022,-0.034252297,-0.37549314,-0.28515488,0.5635149,-0.36755735,-0.21797352,-0.0014717317,0.1384916,-0.3919838,-0.855734,-0.91484845,-0.33844018,-0.48435992,0.15258637,-0.6468451,0.5226124,-0.70237446,-0.40455487,-0.73432773,-1.0334235,-0.0505367,-0.4729805,-0.24321744,-0.30820888,0.08632474,-0.36196238,-0.78245157,0.2756276,-0.29173476,0.13593358,-0.6322336,-0.46179554,-0.59208935,0.30080616,0.010587062,-0.50765383,-0.23252682,-0.6530402,-0.14919302,-0.011386366,-0.02737282,-0.21733263,-0.49045935,-0.50547594,0.10115252,-0.2734898,-0.38583744,-0.02878938,-0.11917182,-0.12418196,-0.2093312,-0.03773435,0.07903246,0.20358767,-0.47058353,-0.27975866,
